/*!
 * The following copyright notice may not be removed under any circumstances.
 * 
 * Copyright:
 * 4.1 (c)1986-92 by Richard A. Ware. All Rights Reserved.
 */
Cufon.registerFont({"w":592,"face":{"font-family":"AlexandriaFLF","font-weight":700,"font-stretch":"normal","units-per-em":"1000","panose-1":"2 0 8 3 6 0 0 2 0 4","ascent":"800","descent":"-200","x-height":"15","bbox":"-86 -877 1138 1262","underline-thickness":"25","underline-position":"-121","unicode-range":"U+0020-U+2122"},"glyphs":{" ":{"w":276},"!":{"d":"168,-714r-97,0r0,535r97,0r0,-535xm119,10v32,0,60,-28,60,-60v0,-32,-28,-60,-60,-60v-32,0,-60,28,-60,60v0,32,28,60,60,60","w":235},"\"":{"d":"252,-748r-61,0r12,192r37,0xm120,-748r-61,0r12,192r37,0","w":301},"#":{"d":"327,-681r-72,0r-29,120r-134,0r-21,69r136,0r-28,114r-123,0r-20,70r124,0r-29,120r71,0r30,-120r130,0r-30,120r71,0r31,-120r134,0r21,-70r-138,0r30,-114r128,0r21,-69r-132,0r30,-120r-72,0r-29,120r-130,0xm280,-492r129,0r-29,114r-130,0","w":658},"$":{"d":"119,-45v30,22,63,44,114,49r0,57r81,0r0,-58v115,-15,198,-78,198,-206v0,-137,-94,-187,-198,-223r0,-208v36,8,69,22,95,40r0,52r82,0r0,-172r-82,0r0,31v-28,-13,-55,-28,-95,-32r0,-55r-81,0r0,54v-81,11,-144,48,-175,110v-10,21,-16,43,-16,68v1,127,89,166,191,192r0,267v-49,-11,-91,-39,-115,-72r0,-51r-80,0r0,202r81,0r0,-45xm314,-323v49,21,106,58,106,124v1,64,-50,109,-106,118r0,-242xm233,-446v-48,-16,-97,-32,-99,-92v-1,-58,49,-86,99,-96r0,188","w":536},"%":{"d":"637,-714r-75,0r-388,714r75,0xm279,-383v77,-32,137,-129,94,-232v-25,-61,-80,-108,-163,-108v-83,0,-136,48,-163,108v-32,70,0,156,38,194v41,41,124,67,194,38xm167,-445v-48,-20,-85,-80,-59,-145v19,-48,82,-85,145,-59v48,19,85,82,59,145v-19,48,-82,85,-145,59xm681,-1v77,-32,137,-129,94,-232v-25,-61,-80,-108,-163,-108v-83,0,-136,48,-163,108v-32,70,0,156,38,194v41,41,124,67,194,38xm569,-63v-48,-20,-85,-80,-59,-145v19,-48,82,-85,145,-59v48,19,85,82,59,145v-19,48,-82,85,-145,59","w":816},"&":{"d":"374,-147v-35,25,-73,57,-135,56v-73,-3,-119,-47,-119,-116v0,-83,54,-119,108,-159xm248,-530v-20,-51,6,-95,68,-91v39,2,80,6,107,18r0,67r82,0r0,-125v-55,-36,-198,-64,-280,-30v-51,22,-86,62,-86,128v0,53,25,97,44,130v-80,63,-159,108,-159,243v0,99,55,157,128,182v86,30,186,0,242,-36r35,-22r46,66r121,0r-93,-143v40,-56,69,-137,75,-241r63,0r0,-81r-208,0r0,81r56,0v-5,62,-16,123,-43,163r-180,-275v-7,-11,-13,-23,-18,-34","w":665},"'":{"d":"122,-743r-61,0r12,192r37,0","w":179},"(":{"d":"147,-341v0,-159,39,-285,109,-393r-55,-30v-94,130,-159,305,-129,528v17,130,66,230,129,323r55,-31v-67,-113,-109,-236,-109,-397","w":321},")":{"d":"123,87v86,-126,136,-247,136,-428v0,-178,-50,-301,-136,-423r-55,30v70,109,109,233,109,393v0,160,-42,284,-109,397","w":321},"*":{"d":"162,-742v-36,2,-25,60,-20,90v4,16,9,31,14,45r-20,-21v-22,-20,-46,-52,-81,-52v-23,0,-27,33,-7,46v26,17,68,29,102,37v-34,7,-78,20,-104,37v-22,14,-15,46,9,47v45,-9,73,-47,101,-74v-7,30,-19,59,-19,94v0,21,5,40,25,40v36,-1,25,-62,20,-89v-4,-14,-9,-30,-14,-45v26,26,55,73,101,73v25,0,27,-33,7,-46v-26,-17,-68,-30,-102,-37v33,-8,79,-20,104,-37v22,-15,15,-46,-9,-47v-46,8,-72,48,-101,74v7,-26,20,-62,19,-96v0,-20,-5,-40,-25,-39","w":324},"+":{"d":"185,-315r-128,0r0,71r128,0r0,128r71,0r0,-128r128,0r0,-71r-128,0r0,-128r-71,0r0,128","w":434},",":{"d":"196,-69r-86,0r-69,187r49,0","w":230},"-":{"d":"305,-321r-232,0r0,72r232,0r0,-72","w":369},".":{"d":"119,10v32,0,60,-28,60,-60v0,-32,-28,-60,-60,-60v-32,0,-60,28,-60,60v0,32,28,60,60,60","w":235},"\/":{"d":"304,-745r-61,0r-230,791r61,0","w":306},"0":{"d":"183,-690v-122,77,-177,271,-133,465v20,88,66,159,132,203v65,42,174,41,239,0v121,-77,174,-279,130,-466v-21,-87,-65,-159,-131,-202v-64,-42,-172,-41,-237,0xm384,-605v121,87,116,412,-1,498v-43,31,-119,31,-162,0v-121,-88,-123,-410,-2,-498v43,-31,122,-31,165,0"},"1":{"d":"458,-82r-97,0r0,-632r-197,0r0,81r97,0r0,551r-97,0r0,82r294,0r0,-82"},"2":{"d":"307,-632v71,0,127,48,125,121v-4,113,-100,139,-174,182v-95,55,-174,126,-187,266r-7,63r455,0r0,-202r-81,0r0,120r-268,0v7,-76,43,-120,96,-152v88,-52,191,-92,238,-186v24,-47,25,-123,2,-174v-32,-73,-98,-124,-199,-124v-100,0,-165,46,-199,111v-13,26,-16,47,-19,76r92,0v6,-65,52,-101,126,-101"},"3":{"d":"430,-383v51,-20,96,-76,93,-153v-5,-120,-88,-181,-211,-181v-100,0,-167,48,-202,116v-11,23,-17,46,-18,71r92,0v3,-63,53,-106,124,-106v68,0,124,38,124,100v1,77,-42,113,-117,114r-45,0r0,81v111,-7,184,32,184,135v0,66,-39,105,-88,124v-87,34,-187,-15,-195,-96r-91,0v15,120,99,188,231,188v109,0,182,-55,217,-132v12,-26,17,-54,17,-84v-2,-93,-47,-152,-115,-177"},"4":{"d":"466,-714r-75,0r-356,495r0,53r337,0r0,84r-61,0r0,82r217,0r0,-82r-62,0r0,-84r92,0r0,-82r-92,0r0,-466xm372,-248r-222,0r222,-305r0,305"},"5":{"d":"32,-135v37,86,109,146,235,145v124,-1,211,-54,253,-142v28,-59,30,-154,2,-215v-45,-99,-163,-157,-306,-134v-14,2,-23,7,-30,12r23,-164r218,0r0,76r81,0r0,-157r-376,0r-47,336r43,26v36,-34,68,-52,134,-52v109,0,181,53,184,159v3,109,-73,174,-179,174v-82,-1,-131,-43,-155,-101"},"6":{"d":"305,-386v107,0,181,52,181,155v0,103,-73,155,-181,155v-97,0,-142,-63,-165,-140v-8,-28,-12,-57,-13,-89v38,-44,94,-81,178,-81xm556,-574v-39,-85,-110,-149,-237,-148v-154,2,-232,95,-267,221v-37,135,-16,321,47,407v44,60,106,105,206,104v125,-1,209,-54,247,-144v25,-58,28,-146,0,-203v-40,-85,-125,-134,-247,-135v-83,-1,-137,30,-178,69v3,-98,40,-176,107,-213v24,-14,52,-20,85,-20v85,-2,130,37,156,92"},"7":{"d":"309,-82v13,-243,108,-414,232,-551r0,-81r-485,0r0,147r82,0r0,-66r286,0v-111,141,-198,321,-206,551r-61,0r0,82r215,0r0,-82r-63,0"},"8":{"d":"405,-380v63,-24,112,-69,112,-158v0,-92,-64,-145,-135,-170v-120,-43,-244,14,-284,98v-12,22,-17,46,-17,72v1,88,48,134,111,158v-78,24,-136,85,-136,185v0,99,59,157,136,187v58,23,154,23,212,0v78,-30,138,-87,138,-187v0,-101,-59,-160,-137,-185xm299,-644v79,0,138,33,138,106v0,74,-59,108,-139,108v-79,0,-137,-35,-137,-108v0,-73,59,-106,138,-106xm298,-70v-109,0,-182,-77,-145,-180v19,-52,71,-84,145,-84v74,0,126,32,146,84v40,102,-37,180,-146,180"},"9":{"d":"116,-481v0,-103,71,-155,179,-155v128,0,170,108,181,231v-38,44,-97,79,-181,79v-111,1,-179,-52,-179,-155xm44,-138v38,85,111,148,237,148v154,0,232,-95,267,-221v37,-135,16,-321,-47,-407v-43,-60,-107,-104,-206,-104v-125,0,-209,54,-247,144v-25,58,-28,148,0,205v40,85,125,132,247,133v83,1,137,-30,178,-69v-4,98,-40,176,-107,213v-24,14,-52,20,-85,20v-84,0,-131,-35,-156,-92"},":":{"d":"119,10v32,0,60,-28,60,-60v0,-32,-28,-60,-60,-60v-32,0,-60,28,-60,60v0,32,28,60,60,60xm119,-357v32,0,60,-28,60,-60v0,-32,-28,-60,-60,-60v-32,0,-60,28,-60,60v0,32,28,60,60,60","w":235},";":{"d":"196,-69r-86,0r-69,187r49,0xm131,-357v32,0,60,-28,60,-60v0,-32,-28,-60,-60,-60v-32,0,-60,28,-60,60v0,32,28,60,60,60","w":230},"<":{"d":"315,-490r-269,194r262,194r0,-77r-155,-117r162,-117r0,-77","w":352},"=":{"d":"327,-223r-258,0r0,71r258,0r0,-71xm327,-377r-258,0r0,72r258,0r0,-72","w":393},">":{"d":"61,-102r262,-194r-269,-194r0,77r162,117r-155,117r0,77","w":352},"?":{"d":"350,-518v0,84,-70,130,-164,128r0,179r97,0r0,-121v72,-11,124,-54,150,-114v30,-71,6,-166,-33,-210v-34,-39,-84,-69,-159,-68v-124,2,-187,78,-205,185r107,0v7,-53,39,-87,98,-89v69,-2,109,47,109,110xm235,9v32,0,60,-28,60,-60v0,-32,-28,-60,-60,-60v-32,0,-60,28,-60,60v0,32,28,60,60,60","w":473},"@":{"d":"290,-290v-56,0,-86,-36,-86,-90v0,-63,38,-104,103,-106v53,-2,84,44,84,93v0,62,-38,103,-101,103xm454,-212v-36,21,-77,41,-139,39v-112,-2,-182,-56,-215,-137v-22,-54,-22,-123,1,-176v34,-79,104,-136,214,-136v110,0,181,53,214,132v29,69,30,198,-58,201v-40,1,-42,-30,-47,-63r17,-159r-29,0r-7,48v-16,-27,-47,-56,-97,-54v-87,3,-139,56,-139,139v0,73,45,118,120,120v57,1,87,-25,109,-57v7,31,26,58,69,57v111,-3,130,-149,90,-242v-39,-89,-118,-153,-242,-153v-123,0,-203,66,-243,154v-27,60,-27,140,-2,201v38,91,117,153,243,155v76,1,118,-16,161,-45","w":617},"A":{"d":"338,-598r99,312r-198,0xm648,-82r-53,0r-175,-551r66,0r0,-81r-296,0r0,81r66,0r-175,551r-53,0r0,82r210,0r0,-82r-63,0r35,-111r256,0r35,111r-63,0r0,82r210,0r0,-82","w":680},"B":{"d":"455,-387v44,-22,84,-71,82,-146v-3,-89,-52,-142,-121,-167v-26,-9,-54,-14,-87,-14r-289,0r0,81r67,0r0,551r-67,0r0,82r295,0v106,-1,173,-49,205,-124v10,-25,16,-53,16,-83v0,-93,-43,-147,-101,-180xm435,-529v0,66,-42,106,-114,106r-112,0r0,-210r111,0v70,1,115,37,115,104xm323,-341v98,-2,155,86,121,179v-17,46,-58,79,-121,80r-114,0r0,-259r114,0","w":591},"C":{"d":"392,-624v79,-2,135,23,171,54r0,54r92,0r0,-196r-92,0r0,36v-65,-52,-218,-61,-313,-20v-126,54,-215,165,-215,341v0,171,93,281,215,336v115,52,287,23,362,-35v16,-11,30,-23,44,-34r-54,-81v-53,46,-112,81,-214,79v-119,-3,-194,-67,-231,-156v-27,-64,-26,-157,-1,-221v36,-93,112,-155,236,-157","w":696},"D":{"d":"214,-84r0,-546v83,1,171,-6,228,21v85,41,134,123,134,245v0,124,-45,215,-130,258v-58,29,-148,20,-232,22xm44,-84r0,84r307,0v170,-2,265,-94,307,-225v27,-85,28,-189,0,-273v-43,-127,-139,-216,-307,-216r-307,0r0,84r68,0r0,546r-68,0","w":711},"E":{"d":"51,-82r0,82r507,0r0,-163r-81,0r0,81r-257,0r0,-252r166,0r0,-82r-166,0r0,-216r257,0r0,71r81,0r0,-153r-507,0r0,82r67,0r0,550r-67,0","w":602},"F":{"d":"46,-82r0,82r238,0r0,-82r-69,0r0,-252r186,0r0,-82r-186,0r0,-216r246,0r0,71r82,0r0,-153r-497,0r0,82r67,0r0,550r-67,0","w":582},"G":{"d":"383,8v116,1,196,-37,247,-96r0,88r91,0r0,-386r-330,0r0,92r232,0v-12,129,-87,210,-229,210v-131,0,-207,-70,-241,-168v-37,-106,-5,-240,51,-298v43,-44,101,-76,185,-77v94,-1,163,30,201,81r0,46r92,0r0,-219r-92,0r0,57v-44,-35,-116,-62,-207,-60v-175,3,-276,98,-323,230v-31,86,-34,187,-2,274v47,129,151,224,325,226","w":752},"H":{"d":"691,-82r-67,0r0,-550r67,0r0,-82r-236,0r0,82r67,0r0,214r-317,0r0,-214r67,0r0,-82r-236,0r0,82r67,0r0,550r-67,0r0,82r236,0r0,-82r-67,0r0,-246r317,0r0,246r-67,0r0,82r236,0r0,-82","w":730},"I":{"d":"300,-82r-70,0r0,-550r70,0r0,-82r-240,0r0,82r68,0r0,550r-68,0r0,82r240,0r0,-82","w":349},"J":{"d":"53,2v28,30,69,62,130,62v117,0,176,-80,176,-196r0,-500r70,0r0,-82r-250,0r0,82r78,0r0,489v-1,67,-13,114,-76,115v-46,1,-68,-20,-88,-43","w":444},"K":{"d":"641,-82r-68,0r-270,-299r250,-251r55,0r0,-82r-235,0r0,82r54,0r-221,222r0,-222r67,0r0,-82r-236,0r0,82r67,0r0,550r-67,0r0,82r236,0r0,-82r-67,0r0,-255r231,255r-68,0r0,82r272,0r0,-82","w":664},"L":{"d":"420,-143r0,61r-215,0r0,-550r67,0r0,-82r-236,0r0,82r67,0r0,550r-67,0r0,82r466,0r0,-143r-82,0","w":537},"M":{"d":"865,-82r-68,0r0,-550r68,0r0,-82r-201,0r-214,540r-214,-540r-198,0r0,82r65,0r0,550r-65,0r0,82r235,0r0,-82r-68,0r0,-465r214,547r62,0r214,-547r0,465r-65,0r0,82r235,0r0,-82","w":898},"N":{"d":"273,0r0,-82r-67,0r0,-452r373,534r99,0r0,-632r65,0r0,-82r-234,0r0,82r67,0r0,444r-375,-526r-162,0r0,82r65,0r0,550r-65,0r0,82r234,0","w":781},"O":{"d":"63,-490v-32,86,-32,182,0,268v49,134,158,232,341,232v183,0,291,-98,341,-232v32,-86,32,-182,0,-268v-49,-134,-158,-232,-341,-232v-183,0,-291,98,-341,232xm599,-542v55,58,88,182,50,287v-36,97,-113,167,-245,167v-132,0,-209,-70,-245,-167v-38,-104,-5,-229,50,-287v44,-46,107,-82,195,-82v88,0,151,36,195,82","w":804},"P":{"d":"299,-630v64,3,97,50,97,112v0,63,-32,112,-97,112r-97,0r0,-224r97,0xm299,-324v149,0,226,-122,181,-266v-23,-73,-83,-123,-181,-124r-265,0r0,82r66,0r0,550r-66,0r0,82r237,0r0,-82r-69,0r0,-242r97,0","w":520},"Q":{"d":"343,100v98,-1,125,69,224,67v39,0,76,-6,110,-18r0,-107v-38,19,-115,30,-163,13v-34,-12,-56,-35,-93,-45v173,-8,278,-102,325,-235v30,-86,30,-180,-1,-265v-49,-134,-158,-232,-341,-232v-183,0,-290,98,-341,232v-48,130,-11,288,53,368v51,63,124,114,225,127v-50,5,-99,16,-133,38r0,91v46,-20,83,-33,135,-34xm599,-542v55,58,88,182,50,287v-36,97,-113,167,-245,167v-132,0,-209,-70,-245,-167v-38,-104,-5,-229,50,-287v44,-46,107,-82,195,-82v88,0,151,36,195,82","w":804},"R":{"d":"329,-630v71,1,104,46,104,114v0,65,-32,110,-104,110r-122,0r0,-224r122,0xm207,-82r0,-242r54,0r212,324r129,0r0,-82r-67,0r-165,-242v98,-13,164,-76,164,-192v0,-92,-47,-152,-113,-182v-24,-11,-51,-16,-81,-16r-301,0r0,82r66,0r0,550r-66,0r0,82r238,0r0,-82r-70,0","w":633},"S":{"d":"409,-687v-47,-36,-156,-46,-229,-22v-79,25,-138,76,-138,176v0,122,90,160,189,185v61,15,109,32,147,61v27,21,42,46,42,88v0,83,-66,123,-155,123v-68,0,-115,-32,-147,-66r0,-60r-80,0r0,202r81,0r0,-45v34,29,84,51,150,51v112,-1,190,-44,225,-122v35,-78,17,-178,-39,-228v-39,-35,-94,-65,-169,-86v-49,-14,-87,-25,-120,-46v-30,-19,-42,-66,-22,-103v21,-39,67,-61,128,-62v60,0,103,20,137,43r0,52r82,0r0,-172r-82,0r0,31","w":539},"T":{"d":"403,0r0,-82r-69,0r0,-550r102,0r0,96r81,0r0,-178r-469,0r0,178r82,0r0,-96r102,0r0,550r-67,0r0,82r238,0","w":556},"U":{"d":"326,-82v-85,0,-137,-41,-138,-127r0,-423r69,0r0,-82r-238,0r0,82r67,0r0,417v3,149,90,225,240,225v149,0,239,-76,239,-225r0,-417r69,0r0,-82r-238,0r0,82r67,0r0,423v0,88,-51,127,-137,127","w":655},"V":{"d":"474,-632r50,0r-163,516r-163,-516r50,0r0,-82r-211,0r0,82r52,0r204,632r136,0r204,-632r52,0r0,-82r-211,0r0,82","w":720},"W":{"d":"423,-632r62,0r-143,531r-143,-531r45,0r0,-82r-210,0r0,82r59,0r179,632r135,0r151,-561r151,561r135,0r177,-631r59,-1r0,-82r-211,0r0,82r50,0r-139,531r-144,-530r61,0r0,-83r-274,0r0,82","w":1114},"X":{"d":"242,-82r-56,0r125,-205r132,205r-66,0r0,82r226,0r0,-82r-50,0r-189,-295r160,-255r67,0r0,-82r-214,0r0,82r37,0r-103,171r-103,-171r46,0r0,-82r-219,0r0,82r63,0r158,258r-180,292r-62,0r0,82r228,0r0,-82","w":622},"Y":{"d":"271,-345r0,263r-53,0r0,82r211,0r0,-82r-56,0r0,-263r201,-287r46,0r0,-82r-221,0r0,82r67,0r-144,199r-140,-199r64,0r0,-82r-222,0r0,82r46,0","w":643},"Z":{"d":"427,-92r-280,0r361,-553r0,-69r-458,0r0,178r82,0r0,-86r255,0r-363,553r0,69r484,0r0,-178r-81,0r0,86","w":546},"[":{"d":"198,-749r0,-35r-139,0r0,850r142,1r0,-33r-70,-1r0,-782r67,0","w":240},"\\":{"d":"309,36r-214,-786r-82,0r215,786r81,0","w":311},"]":{"d":"189,66r0,-851r-139,0r0,35r67,0r0,783r-70,1r0,33","w":240},"^":{"d":"163,-673r-112,255r31,0r97,-169r97,169r30,0r-112,-255r-31,0","w":352},"_":{"d":"372,25r-371,0r0,40r371,0r0,-40","w":357},"`":{"d":"202,-592r35,-36r-134,-133r-36,37","w":291},"a":{"d":"116,-404v27,-28,76,-47,127,-47v78,0,141,33,144,111r0,47v-31,-34,-78,-56,-146,-56v-100,1,-165,43,-197,111v-33,71,-4,158,38,194v37,32,89,54,159,54v68,0,113,-17,146,-48r0,38r171,0r0,-61r-73,0r0,-273v-4,-133,-98,-196,-230,-196v-75,0,-148,26,-187,65xm243,-72v-77,0,-128,-33,-128,-97v0,-64,52,-98,128,-98v78,0,138,35,138,98v0,63,-61,97,-138,97","w":572},"b":{"d":"185,-56v38,43,94,69,180,68v132,-2,211,-73,249,-170v41,-105,2,-225,-54,-282v-45,-46,-108,-85,-195,-85v-85,0,-143,26,-180,70r0,-295r-158,0r0,71r61,0r0,608r-61,0r0,71r158,0r0,-56xm290,-93v-78,-32,-138,-128,-95,-233v25,-62,81,-109,165,-109v84,0,138,48,165,109v32,71,0,157,-39,195v-42,40,-125,67,-196,38","w":646},"c":{"d":"443,-131v-26,25,-76,57,-132,55v-119,-3,-191,-68,-191,-183v0,-83,48,-135,110,-162v24,-10,51,-15,81,-15v46,0,90,22,111,40r0,30r72,0r0,-156r-72,0r0,24v-54,-35,-168,-32,-233,-4v-115,49,-193,191,-141,344v40,115,166,197,326,164v54,-11,93,-42,126,-74","w":521},"d":{"d":"295,12v85,0,143,-22,180,-60r0,48r159,0r0,-71r-62,0r0,-679r-180,0r0,70r83,0r0,219v-35,-38,-98,-66,-180,-64v-126,3,-202,79,-241,171v-45,103,-4,225,50,282v43,45,106,84,191,84xm236,-92v-78,-32,-139,-129,-96,-234v25,-62,81,-108,165,-108v84,0,138,47,165,108v32,71,1,158,-38,196v-42,40,-125,67,-196,38","w":656},"e":{"d":"445,-123v-30,24,-71,50,-131,49v-88,-1,-142,-45,-172,-102v-8,-17,-13,-32,-14,-46r435,0v7,-133,-47,-229,-137,-278v-62,-34,-169,-34,-235,-4v-91,42,-156,123,-156,247v0,124,65,206,157,247v64,29,177,30,238,0v30,-14,52,-33,75,-53xm468,-296r-339,0v7,-62,48,-105,99,-128v39,-17,109,-18,148,0v50,23,83,68,92,128","w":583},"f":{"d":"279,-742v-106,-18,-194,21,-192,126r0,101r-56,0r0,66r56,0r0,388r-61,0r0,61r219,0r0,-61r-61,0r0,-388r98,0r0,-66r-98,0r0,-85v-4,-54,50,-64,95,-53r0,-89","w":314},"g":{"d":"311,204v172,0,269,-89,270,-254r0,-393r61,0r0,-71r-158,0r0,60v-59,-60,-183,-95,-283,-50v-92,41,-164,121,-164,249v0,128,71,209,163,249v32,14,66,21,102,21v78,0,139,-31,182,-71v9,122,-59,170,-171,171v-52,1,-82,-13,-108,-31r-65,64v41,38,85,56,171,56xm238,-91v-78,-32,-138,-128,-95,-233v25,-62,81,-109,165,-109v84,0,138,48,165,109v32,71,0,157,-39,195v-42,40,-125,67,-196,38","w":668},"h":{"d":"340,-530v-73,-2,-117,27,-145,64r0,-284r-158,0r0,61r61,0r0,628r-61,0r0,61r219,0r0,-61r-61,0r0,-294v24,-47,62,-89,134,-90v68,-1,111,39,111,103r0,281r-61,0r0,61r219,0r0,-61r-61,0r0,-286v-4,-118,-76,-180,-197,-183","w":616},"i":{"d":"51,-454r61,0r0,393r-61,0r0,61r219,0r0,-61r-61,0r0,-454r-158,0r0,61xm158,-594v32,0,60,-28,60,-60v0,-32,-28,-60,-60,-60v-32,0,-60,28,-60,60v0,32,28,60,60,60","w":315},"j":{"d":"63,189v118,2,183,-43,183,-161r0,-543r-158,0r0,61r61,0r0,488v-2,51,-26,76,-86,75r0,80xm196,-594v32,0,60,-28,60,-60v0,-32,-28,-60,-60,-60v-32,0,-60,28,-60,60v0,32,28,60,60,60","w":315},"k":{"d":"270,-455r66,0r-165,165r0,-460r-153,0r0,61r62,0r0,628r-62,0r0,61r220,0r0,-61r-67,0r0,-195r256,256r103,0r0,-61r-43,0r-221,-221r173,-173r62,0r0,-61r-231,0r0,61","w":553},"l":{"d":"51,-689r61,0r0,628r-61,0r0,61r219,0r0,-61r-61,0r0,-689r-158,0r0,61","w":315},"m":{"d":"619,-448v54,-2,78,39,78,87r0,300r-61,0r0,61r219,0r0,-61r-61,0r0,-301v-3,-105,-57,-166,-163,-168v-79,-2,-129,22,-165,61v-23,-38,-67,-61,-130,-61v-70,0,-113,25,-144,61r0,-46r-158,0r0,61r61,0r0,393r-61,0r0,61r219,0r0,-61r-61,0r0,-292v6,-42,42,-69,76,-85v15,-7,30,-10,46,-10v52,1,82,33,82,83r0,304r-61,0r0,61r219,0r0,-61r-61,0r0,-292v4,-45,41,-70,77,-86v15,-6,32,-9,49,-9","w":885},"n":{"d":"342,-530v-74,0,-118,25,-150,64r0,-49r-158,0r0,61r61,0r0,393r-61,0r0,61r219,0r0,-61r-61,0r0,-294v24,-48,67,-89,139,-90v64,-1,107,40,106,103r0,281r-61,0r0,61r219,0r0,-61r-61,0r0,-286v1,-113,-77,-183,-192,-183","w":618},"o":{"d":"556,-150v28,-64,28,-146,0,-210v-41,-92,-121,-165,-248,-165v-127,0,-207,73,-248,165v-28,64,-28,146,0,210v41,92,121,165,248,165v127,0,207,-73,248,-165xm238,-92v-78,-32,-138,-129,-95,-234v25,-62,81,-108,165,-108v84,0,138,47,165,108v32,71,0,158,-39,196v-42,40,-125,67,-196,38","w":604},"p":{"d":"480,-504v-96,-44,-222,-13,-280,46r0,-57r-158,0r0,71r59,0r0,566r-61,0r0,72r219,0r0,-72r-61,0r0,-176v59,59,184,93,282,48v91,-42,163,-123,163,-249v0,-126,-72,-208,-163,-249xm302,-91v-78,-32,-138,-128,-95,-233v25,-62,81,-109,165,-109v84,0,138,48,165,109v32,71,0,157,-39,195v-42,40,-125,67,-196,38","w":666},"q":{"d":"199,-6v100,46,227,10,285,-52r0,252r158,0r0,-72r-61,0r0,-566r59,0r0,-71r-158,0r0,61v-59,-60,-184,-96,-283,-50v-91,42,-164,123,-164,249v0,126,74,207,164,249xm236,-91v-78,-32,-138,-128,-95,-233v25,-62,81,-109,165,-109v84,0,138,48,165,109v32,71,0,157,-39,195v-42,40,-125,67,-196,38","w":679},"r":{"d":"399,-531v-96,-1,-162,26,-200,81r0,-65r-158,0r0,61r61,0r0,393r-61,0r0,61r219,0r0,-61r-61,0r0,-260v4,-68,59,-91,119,-107v24,-6,52,-9,81,-10r0,-93","w":427},"s":{"d":"219,-445v54,-1,107,22,132,49r0,31r71,0r0,-150r-71,0r0,25v-37,-33,-129,-49,-197,-28v-61,19,-112,58,-112,133v0,146,176,131,266,189v18,12,27,27,27,54v0,44,-43,65,-101,65v-61,0,-95,-19,-127,-42r0,-36r-71,0r0,155r69,0r0,-28v33,25,74,40,134,39v109,-3,189,-43,191,-153v0,-47,-18,-84,-52,-112v-34,-28,-83,-49,-146,-64v-38,-9,-64,-20,-79,-30v-15,-10,-22,-22,-22,-37v0,-40,29,-60,88,-60","w":453},"t":{"d":"302,-87v-21,11,-31,19,-59,19v-42,0,-59,-28,-59,-71r0,-306r115,0r0,-66r-115,0r0,-181r-97,49r0,132r-56,0r0,66r56,0r0,306v1,93,42,150,132,152v27,0,55,-6,83,-18r0,-82","w":324},"u":{"d":"292,14v72,1,119,-24,150,-62r0,48r158,0r0,-61r-61,0r0,-454r-158,0r0,61r61,0r0,288v-18,52,-67,97,-139,97v-68,0,-106,-46,-106,-118r0,-328r-158,0r0,61r61,0r0,263v-1,135,63,204,192,205","w":637},"v":{"d":"269,0r70,0r213,-454r43,0r0,-61r-191,0r0,61r51,0r-151,330r-151,-330r50,0r0,-61r-191,0r0,61r44,0","w":606},"w":{"d":"570,-454r0,-61r-204,0r0,61r69,0r-133,330r-133,-330r50,0r0,-61r-188,0r0,61r43,0r192,454r69,0r133,-327r133,327r69,0r192,-454r44,0r0,-61r-189,0r0,61r50,0r-132,330r-133,-330r68,0","w":932},"x":{"d":"516,0r0,-60r-55,0r-139,-188r153,-206r41,0r0,-61r-188,0r0,61r52,0r-106,143r-106,-143r53,0r0,-61r-188,0r0,61r41,0r148,199r-145,195r-44,0r0,60r188,0r0,-60r-49,0r97,-132r98,132r-39,0r0,60r188,0","w":540},"y":{"d":"71,-454r200,428r-71,154r-54,0r0,61r199,0r0,-61r-54,0r272,-582r47,0r0,-61r-189,0r0,61r47,0r-150,330r-152,-330r50,0r0,-61r-188,0r0,61r43,0","w":633},"z":{"d":"389,-70r-240,0r306,-376r0,-69r-406,0r0,168r70,0r0,-97r227,0r-304,381r0,63r417,0r0,-178r-70,0r0,108","w":488},"{":{"d":"80,-355v40,-14,76,-34,75,-90r0,-207v1,-62,24,-85,87,-85r0,-55v-99,1,-158,44,-158,140r0,207v1,50,-24,72,-55,90v29,19,56,42,55,90r0,211v0,96,59,136,158,136r0,-61v-55,-1,-87,-15,-87,-75r0,-211v0,-55,-39,-71,-75,-90","w":270},"|":{"d":"126,46r0,-801r-72,0r0,801r72,0","w":179},"}":{"d":"250,-355v-31,-18,-56,-40,-55,-90r0,-207v-2,-96,-59,-139,-158,-140r0,55v63,0,86,23,87,85r0,207v-1,56,35,76,75,90v-36,19,-75,35,-75,90r0,211v1,60,-32,74,-87,75r0,61v100,0,158,-40,158,-136r0,-211v-1,-48,26,-71,55,-90","w":270},"~":{"d":"412,-409v-23,19,-42,37,-87,35v-65,-3,-92,-51,-163,-51v-55,0,-90,26,-117,52r35,43v21,-17,39,-38,77,-37v74,0,90,51,170,51v55,0,92,-25,120,-48","w":488},"\u00a2":{"d":"268,-469v59,-2,95,16,126,43r0,-79v-29,-16,-58,-31,-101,-35r0,-57r-56,0r0,58v-116,8,-181,83,-181,200v0,117,68,191,181,201r0,61r56,0r0,-61v37,1,78,-19,101,-32r0,-83v-30,28,-66,48,-126,47v-82,-3,-130,-52,-130,-132v0,-79,49,-129,130,-131","w":454},"\u00a3":{"d":"237,-133v34,-44,40,-91,41,-167r112,0r0,-51r-114,0v-11,-63,-51,-103,-76,-152v-8,-15,-12,-33,-12,-54v0,-47,39,-72,91,-72v62,0,109,30,124,79r85,-32v-25,-82,-104,-138,-212,-137v-87,1,-144,39,-172,99v-16,36,-18,85,-2,122v23,51,64,87,77,147r-105,0r0,51r109,0v-1,77,-18,128,-59,168v-31,10,-67,24,-84,48r30,85v34,-30,97,-58,153,-33v45,21,107,50,175,32v38,-10,69,-27,91,-50r-32,-77v-26,27,-90,50,-137,32v-30,-12,-49,-32,-83,-38","w":520},"\u00a5":{"d":"24,-633v15,-1,33,2,46,-1r203,293r-104,0r0,56r102,0r0,41r-102,0r0,56r102,0r0,106r-53,0r0,82r211,0r0,-82r-57,0r0,-106r102,0r0,-56r-102,0r0,-41r102,0r0,-56r-104,0r204,-292r46,0r0,-81r-221,0r0,81r68,0r-145,215r-140,-215r64,0r0,-81r-222,0r0,81","w":640},"\u00a8":{"d":"95,-600v30,0,54,-24,54,-54v0,-30,-24,-54,-54,-54v-30,0,-54,24,-54,54v0,30,24,54,54,54xm244,-600v30,0,54,-24,54,-54v0,-30,-24,-54,-54,-54v-30,0,-54,24,-54,54v0,30,24,54,54,54","w":337},"\u00a9":{"d":"544,-287v27,-63,27,-141,0,-204v-40,-90,-118,-161,-242,-161v-123,0,-202,71,-242,161v-27,63,-27,141,0,204v40,90,118,161,242,161v123,0,202,-71,242,-161xm79,-296v-25,-58,-25,-130,0,-188v37,-83,110,-149,224,-149v114,0,187,66,224,149v25,58,25,130,0,188v-37,83,-110,149,-224,149v-114,0,-187,-66,-224,-149xm302,-293v-67,-1,-110,-37,-110,-101v0,-64,43,-99,110,-100v41,-1,72,18,95,34r0,-24v-24,-15,-51,-31,-95,-30v-79,2,-130,44,-130,120v0,76,51,119,130,121v44,2,75,-18,95,-35r0,-24v-24,22,-48,39,-95,39","w":588},"\u00ab":{"d":"214,-67r36,-36r-153,-152r152,-152r-35,-36r-188,188xm388,-67r34,-36r-152,-152r152,-152r-34,-36r-189,188","w":459},"\u00ae":{"d":"217,-566v36,2,59,-14,59,-49v0,-28,-22,-50,-51,-49r-70,0r0,182r14,0r0,-84r31,0r58,84r18,0xm226,-650v22,-1,35,15,36,35v3,45,-52,34,-93,35r0,-70r57,0xm272,-424v69,-29,122,-114,84,-206v-22,-54,-72,-97,-146,-97v-74,0,-121,44,-146,97v-29,63,0,138,34,172v37,36,112,60,174,34xm154,-437v-63,-25,-108,-103,-76,-188v23,-63,106,-107,188,-76v63,24,107,106,76,188v-24,63,-106,108,-188,76","w":418},"\u00b4":{"d":"237,-724r-36,-37r-134,133r35,36","w":276},"\u00b8":{"d":"187,96v1,-27,-20,-51,-38,-59r11,-37r-51,0r-13,44v16,5,39,18,39,39v0,20,-14,30,-33,30v-21,0,-41,-15,-50,-28r0,48v12,15,38,31,67,30v43,-1,66,-26,68,-67","w":245},"\u00bb":{"d":"229,-407r154,152r-153,153r35,35r189,-188r-190,-189xm55,-407r154,152r-152,153r35,35r189,-188r-190,-189","w":485},"\u00c0":{"d":"342,-741r27,-28r-107,-108r-28,30xm338,-598r99,312r-198,0xm648,-82r-53,0r-175,-551r66,0r0,-81r-296,0r0,81r66,0r-175,551r-53,0r0,82r210,0r0,-82r-63,0r35,-111r256,0r35,111r-63,0r0,82r210,0r0,-82","w":680},"\u00c2":{"d":"336,-875r-97,96r27,28r70,-69r68,69r29,-29xm338,-598r99,312r-198,0xm648,-82r-53,0r-175,-551r66,0r0,-81r-296,0r0,81r66,0r-175,551r-53,0r0,82r210,0r0,-82r-63,0r35,-111r256,0r35,111r-63,0r0,82r210,0r0,-82","w":680},"\u00c6":{"d":"892,-561r0,-153r-616,0r0,81r127,0r-298,551r-81,0r0,82r260,0r0,-82r-75,0r100,-194r142,0r0,194r-66,0r0,82r507,0r0,-163r-82,0r0,81r-256,0r0,-253r165,0r0,-81r-165,0r0,-217r256,0r0,72r82,0xm451,-556r0,199r-102,0","w":940},"\u00c7":{"d":"447,105v0,-30,-24,-53,-42,-64r10,-34v109,-3,183,-35,244,-83r-46,-73v-54,47,-120,78,-225,76v-125,-3,-201,-76,-240,-170v-29,-68,-27,-167,-2,-235v37,-99,115,-161,246,-163v78,0,132,30,171,67r0,54r92,0r0,-192r-92,0r0,41v-66,-56,-215,-67,-313,-26v-127,53,-215,164,-215,342v0,165,85,272,197,329v39,19,81,30,126,33r-11,34v10,5,26,16,25,32v0,18,-8,31,-27,30v-16,0,-31,-10,-39,-18r0,61v12,13,43,28,70,28v42,0,71,-28,71,-69","w":696},"\u00c8":{"d":"344,-741r27,-28r-107,-108r-28,30xm51,-82r0,82r507,0r0,-163r-81,0r0,81r-257,0r0,-252r166,0r0,-82r-166,0r0,-216r257,0r0,71r81,0r0,-153r-507,0r0,82r67,0r0,550r-67,0","w":602},"\u00c9":{"d":"413,-843r-28,-29r-107,107r27,28xm51,-82r0,82r507,0r0,-163r-81,0r0,81r-257,0r0,-252r166,0r0,-82r-166,0r0,-216r257,0r0,71r81,0r0,-153r-507,0r0,82r67,0r0,550r-67,0","w":602},"\u00ca":{"d":"336,-875r-97,96r27,28r70,-69r68,69r29,-29xm51,-82r0,82r507,0r0,-163r-81,0r0,81r-257,0r0,-252r166,0r0,-82r-166,0r0,-216r257,0r0,71r81,0r0,-153r-507,0r0,82r67,0r0,550r-67,0","w":602},"\u00cb":{"d":"264,-748v26,1,46,-20,46,-46v0,-26,-20,-47,-46,-46v-25,0,-46,20,-46,46v0,26,21,46,46,46xm397,-748v25,0,46,-20,46,-46v0,-26,-21,-46,-46,-46v-26,-1,-46,20,-46,46v0,26,20,47,46,46xm51,-82r0,82r507,0r0,-163r-81,0r0,81r-257,0r0,-252r166,0r0,-82r-166,0r0,-216r257,0r0,71r81,0r0,-153r-507,0r0,82r67,0r0,550r-67,0","w":602},"\u00ce":{"d":"183,-875r-97,96r27,28r70,-69r68,69r29,-29xm300,-82r-70,0r0,-550r70,0r0,-82r-240,0r0,82r68,0r0,550r-68,0r0,82r240,0r0,-82","w":349},"\u00cf":{"d":"116,-748v26,1,46,-20,46,-46v0,-26,-20,-47,-46,-46v-25,0,-46,20,-46,46v0,26,21,46,46,46xm249,-748v25,0,46,-20,46,-46v0,-26,-21,-46,-46,-46v-26,-1,-46,20,-46,46v0,26,20,47,46,46xm300,-82r-70,0r0,-550r70,0r0,-82r-240,0r0,82r68,0r0,550r-68,0r0,82r240,0r0,-82","w":349},"\u00d4":{"d":"405,-875r-97,96r28,28r69,-69r68,69r29,-29xm63,-490v-32,86,-32,182,0,268v49,134,158,232,341,232v183,0,291,-98,341,-232v32,-86,32,-182,0,-268v-49,-134,-158,-232,-341,-232v-183,0,-291,98,-341,232xm599,-542v55,58,88,182,50,287v-36,97,-113,167,-245,167v-132,0,-209,-70,-245,-167v-38,-104,-5,-229,50,-287v44,-46,107,-82,195,-82v88,0,151,36,195,82","w":804},"\u00d9":{"d":"313,-737r28,-28r-107,-107r-29,29xm326,-82v-85,0,-137,-41,-138,-127r0,-423r69,0r0,-82r-238,0r0,82r67,0r0,417v3,149,90,225,240,225v149,0,239,-76,239,-225r0,-417r69,0r0,-82r-238,0r0,82r67,0r0,423v0,88,-51,127,-137,127","w":655},"\u00db":{"d":"333,-875r-97,96r27,28r70,-69r68,69r29,-29xm326,-82v-85,0,-137,-41,-138,-127r0,-423r69,0r0,-82r-238,0r0,82r67,0r0,417v3,149,90,225,240,225v149,0,239,-76,239,-225r0,-417r69,0r0,-82r-238,0r0,82r67,0r0,423v0,88,-51,127,-137,127","w":655},"\u00dc":{"d":"254,-748v26,1,46,-20,46,-46v0,-26,-20,-47,-46,-46v-25,0,-46,20,-46,46v0,26,21,46,46,46xm398,-748v25,0,46,-20,46,-46v0,-26,-21,-46,-46,-46v-26,-1,-46,20,-46,46v0,26,20,47,46,46xm326,-82v-85,0,-137,-41,-138,-127r0,-423r69,0r0,-82r-238,0r0,82r67,0r0,417v3,149,90,225,240,225v149,0,239,-76,239,-225r0,-417r69,0r0,-82r-238,0r0,82r67,0r0,423v0,88,-51,127,-137,127","w":655},"\u00e0":{"d":"269,-592r35,-36r-134,-133r-35,37xm116,-404v27,-28,76,-47,127,-47v78,0,141,33,144,111r0,47v-31,-34,-78,-56,-146,-56v-100,1,-165,43,-197,111v-33,71,-4,158,38,194v37,32,89,54,159,54v68,0,113,-17,146,-48r0,38r171,0r0,-61r-73,0r0,-273v-4,-133,-98,-196,-230,-196v-75,0,-148,26,-187,65xm243,-72v-77,0,-128,-33,-128,-97v0,-64,52,-98,128,-98v78,0,138,35,138,98v0,63,-61,97,-138,97","w":572},"\u00e2":{"d":"260,-755r-121,121r34,35r87,-87r86,86r35,-35xm116,-404v27,-28,76,-47,127,-47v78,0,141,33,144,111r0,47v-31,-34,-78,-56,-146,-56v-100,1,-165,43,-197,111v-33,71,-4,158,38,194v37,32,89,54,159,54v68,0,113,-17,146,-48r0,38r171,0r0,-61r-73,0r0,-273v-4,-133,-98,-196,-230,-196v-75,0,-148,26,-187,65xm243,-72v-77,0,-128,-33,-128,-97v0,-64,52,-98,128,-98v78,0,138,35,138,98v0,63,-61,97,-138,97","w":572},"\u00e6":{"d":"793,-123v-30,24,-70,52,-131,51v-109,-2,-172,-59,-188,-150r437,0v7,-133,-47,-230,-137,-278v-32,-18,-72,-27,-118,-27v-94,-1,-160,37,-206,86v-49,-81,-191,-110,-304,-72v-34,11,-61,27,-82,48r48,61v27,-28,76,-47,127,-47v78,0,141,33,144,111r0,47v-31,-34,-78,-56,-146,-56v-100,0,-167,42,-198,111v-32,72,-3,158,39,194v37,32,89,54,159,54v68,0,113,-17,146,-48r0,38r98,0r0,-44v60,54,207,77,297,34v30,-14,52,-33,75,-53xm377,-168v5,126,-226,133,-265,38v-6,-12,-8,-25,-8,-38v0,-71,58,-104,135,-104v77,0,135,32,138,104xm820,-296r-343,0v7,-64,48,-109,99,-134v41,-20,112,-20,152,-1v52,25,85,70,92,135","w":939},"\u00e7":{"d":"422,-501v-56,-33,-171,-27,-234,-1v-115,48,-192,190,-140,342v34,100,118,166,248,173r-12,40v15,5,36,16,36,36v0,18,-13,27,-30,27v-20,0,-36,-15,-46,-25r0,43v11,15,34,28,61,28v39,0,61,-29,62,-61v1,-25,-18,-47,-35,-54r9,-35v72,-6,121,-40,159,-75r-57,-63v-27,26,-73,55,-132,54v-96,-2,-158,-47,-181,-118v-44,-139,36,-254,181,-256v45,-1,89,19,111,35r0,45r72,0r0,-156r-72,0r0,21","w":521},"\u00e8":{"d":"312,-592r35,-36r-134,-133r-35,37xm445,-123v-30,24,-71,50,-131,49v-88,-1,-142,-45,-172,-102v-8,-17,-13,-32,-14,-46r435,0v7,-133,-47,-229,-137,-278v-62,-34,-169,-34,-235,-4v-91,42,-156,123,-156,247v0,124,65,206,157,247v64,29,177,30,238,0v30,-14,52,-33,75,-53xm468,-296r-339,0v7,-62,48,-105,99,-128v39,-17,109,-18,148,0v50,23,83,68,92,128","w":583},"\u00e9":{"d":"447,-724r-36,-37r-133,133r34,36xm445,-123v-30,24,-71,50,-131,49v-88,-1,-142,-45,-172,-102v-8,-17,-13,-32,-14,-46r435,0v7,-133,-47,-229,-137,-278v-62,-34,-169,-34,-235,-4v-91,42,-156,123,-156,247v0,124,65,206,157,247v64,29,177,30,238,0v30,-14,52,-33,75,-53xm468,-296r-339,0v7,-62,48,-105,99,-128v39,-17,109,-18,148,0v50,23,83,68,92,128","w":583},"\u00ea":{"d":"313,-755r-121,121r35,35r86,-87r86,86r35,-35xm445,-123v-30,24,-71,50,-131,49v-88,-1,-142,-45,-172,-102v-8,-17,-13,-32,-14,-46r435,0v7,-133,-47,-229,-137,-278v-62,-34,-169,-34,-235,-4v-91,42,-156,123,-156,247v0,124,65,206,157,247v64,29,177,30,238,0v30,-14,52,-33,75,-53xm468,-296r-339,0v7,-62,48,-105,99,-128v39,-17,109,-18,148,0v50,23,83,68,92,128","w":583},"\u00eb":{"d":"237,-600v30,0,54,-24,54,-54v0,-30,-24,-54,-54,-54v-30,0,-54,24,-54,54v0,30,24,54,54,54xm386,-600v30,0,54,-24,54,-54v0,-30,-24,-54,-54,-54v-30,0,-54,24,-54,54v0,30,24,54,54,54xm445,-123v-30,24,-71,50,-131,49v-88,-1,-142,-45,-172,-102v-8,-17,-13,-32,-14,-46r435,0v7,-133,-47,-229,-137,-278v-62,-34,-169,-34,-235,-4v-91,42,-156,123,-156,247v0,124,65,206,157,247v64,29,177,30,238,0v30,-14,52,-33,75,-53xm468,-296r-339,0v7,-62,48,-105,99,-128v39,-17,109,-18,148,0v50,23,83,68,92,128","w":583},"\u00ee":{"d":"158,-755r-121,121r34,35r87,-87r86,86r35,-35xm51,-454r61,0r0,393r-61,0r0,61r219,0r0,-61r-61,0r0,-454r-158,0r0,61","w":315},"\u00ef":{"d":"51,-454r61,0r0,393r-61,0r0,61r219,0r0,-61r-61,0r0,-454r-158,0r0,61xm79,-600v30,0,54,-24,54,-54v0,-30,-24,-54,-54,-54v-30,0,-54,24,-54,54v0,30,24,54,54,54xm228,-600v30,0,54,-24,54,-54v0,-30,-24,-54,-54,-54v-30,0,-54,24,-54,54v0,30,24,54,54,54","w":315},"\u00f4":{"d":"307,-755r-121,121r34,35r87,-87r86,86r35,-35xm556,-150v28,-64,28,-146,0,-210v-41,-92,-121,-165,-248,-165v-127,0,-207,73,-248,165v-28,64,-28,146,0,210v41,92,121,165,248,165v127,0,207,-73,248,-165xm238,-92v-78,-32,-138,-129,-95,-234v25,-62,81,-108,165,-108v84,0,138,47,165,108v32,71,0,158,-39,196v-42,40,-125,67,-196,38","w":604},"\u00f9":{"d":"324,-592r35,-36r-133,-133r-36,37xm292,14v72,1,119,-24,150,-62r0,48r158,0r0,-61r-61,0r0,-454r-158,0r0,61r61,0r0,288v-18,52,-67,97,-139,97v-68,0,-106,-46,-106,-118r0,-328r-158,0r0,61r61,0r0,263v-1,135,63,204,192,205","w":637},"\u00fb":{"d":"311,-755r-121,121r34,35r87,-87r86,86r35,-35xm292,14v72,1,119,-24,150,-62r0,48r158,0r0,-61r-61,0r0,-454r-158,0r0,61r61,0r0,288v-18,52,-67,97,-139,97v-68,0,-106,-46,-106,-118r0,-328r-158,0r0,61r61,0r0,263v-1,135,63,204,192,205","w":637},"\u00fc":{"d":"233,-600v30,0,54,-24,54,-54v0,-30,-24,-54,-54,-54v-30,0,-54,24,-54,54v0,30,24,54,54,54xm382,-600v30,0,54,-24,54,-54v0,-30,-24,-54,-54,-54v-30,0,-54,24,-54,54v0,30,24,54,54,54xm292,14v72,1,119,-24,150,-62r0,48r158,0r0,-61r-61,0r0,-454r-158,0r0,61r61,0r0,288v-18,52,-67,97,-139,97v-68,0,-106,-46,-106,-118r0,-328r-158,0r0,61r61,0r0,263v-1,135,63,204,192,205","w":637},"\u00ff":{"d":"251,-600v30,0,54,-24,54,-54v0,-30,-24,-54,-54,-54v-30,0,-54,24,-54,54v0,30,24,54,54,54xm400,-600v30,0,54,-24,54,-54v0,-30,-24,-54,-54,-54v-30,0,-54,24,-54,54v0,30,24,54,54,54xm71,-454r200,428r-71,154r-54,0r0,61r199,0r0,-61r-54,0r272,-582r47,0r0,-61r-189,0r0,61r47,0r-150,330r-152,-330r50,0r0,-61r-188,0r0,61r43,0","w":634},"\u0152":{"d":"394,10v147,1,246,-67,304,-156r0,64r-33,0r0,82r473,0r0,-163r-81,0r0,81r-257,0r0,-253r166,0r0,-81r-166,0r0,-217r257,0r0,72r81,0r0,-153r-474,0r0,81r34,0r0,67v-61,-91,-154,-156,-304,-156v-183,0,-291,98,-341,232v-32,86,-32,182,0,268v49,134,158,230,341,232xm590,-548v55,62,88,187,50,295v-35,100,-112,177,-246,177v-134,0,-211,-76,-246,-177v-38,-107,-4,-234,50,-295v43,-49,106,-88,196,-88v90,0,153,39,196,88","w":1185},"\u0153":{"d":"902,-123v-30,24,-70,52,-131,51v-109,-2,-172,-59,-188,-150r437,0v7,-133,-48,-230,-138,-278v-32,-18,-71,-27,-117,-27v-114,-1,-190,53,-233,123v-44,-66,-121,-121,-224,-121v-127,0,-207,73,-248,165v-28,64,-28,146,0,210v41,92,121,165,248,165v104,0,183,-55,225,-123v46,69,122,121,238,121v92,0,144,-33,191,-76xm235,-84v-83,-31,-143,-135,-99,-244v26,-64,84,-113,172,-113v88,0,143,50,172,113v19,44,19,102,0,146v-29,63,-84,111,-172,113v-26,0,-50,-5,-73,-15xm929,-296r-343,0v7,-64,48,-109,99,-134v41,-20,113,-20,153,-1v52,25,84,70,91,135","w":1051},"\u0178":{"d":"254,-748v26,1,46,-20,46,-46v0,-26,-20,-47,-46,-46v-25,0,-46,20,-46,46v0,26,21,46,46,46xm387,-748v25,0,46,-20,46,-46v0,-26,-21,-46,-46,-46v-26,-1,-46,20,-46,46v0,26,20,47,46,46xm271,-345r0,263r-53,0r0,82r211,0r0,-82r-56,0r0,-263r201,-287r46,0r0,-82r-221,0r0,82r67,0r-144,199r-140,-199r64,0r0,-82r-222,0r0,82r46,0","w":643},"\u02c6":{"d":"185,-755r-122,121r35,35r87,-87r85,86r35,-35","w":357},"\u02da":{"d":"0,-60v51,0,86,-35,86,-86v0,-51,-35,-86,-86,-86v-51,0,-86,35,-86,86v0,51,35,86,86,86xm0,-93v-29,0,-53,-24,-53,-53v0,-29,24,-53,53,-53v29,0,53,24,53,53v0,29,-24,53,-53,53","w":276},"\u02dc":{"d":"335,-693v-22,20,-65,42,-101,21v-27,-16,-50,-37,-92,-37v-50,-1,-78,23,-102,47r32,40v21,-19,31,-31,70,-31v49,0,66,46,122,46v46,0,77,-25,101,-45","w":403},"\u2013":{"d":"572,-315r-520,0r0,71r520,0r0,-71","w":629},"\u2014":{"d":"807,-315r-755,0r0,71r755,0r0,-71","w":857},"\u2018":{"d":"90,-732v-14,28,-25,69,-25,116r0,104r83,0r0,-106r-48,0v0,-47,9,-82,24,-114r-34,0","w":214},"\u2019":{"d":"121,-513v29,-48,24,-141,24,-220r-83,0r0,106r48,0v0,39,-11,90,-23,114r34,0","w":209},"\u201a":{"d":"120,18v14,-28,25,-69,25,-116r0,-104r-83,0r0,106r48,0v0,47,-9,82,-24,114r34,0","w":199},"\u201c":{"d":"90,-732v-14,28,-25,69,-25,116r0,104r83,0r0,-106r-48,0v0,-47,9,-82,24,-114r-34,0xm242,-732v-14,28,-25,69,-25,116r0,104r83,0r0,-106r-48,0v0,-47,9,-82,24,-114r-34,0","w":357},"\u201d":{"d":"272,-512v14,-28,25,-69,25,-116r0,-104r-83,0r0,106r48,0v0,47,-9,82,-24,114r34,0xm120,-512v14,-28,25,-69,25,-116r0,-104r-83,0r0,106r48,0v0,47,-9,82,-24,114r34,0","w":357},"\u201e":{"d":"214,1262r0,-106r48,0v0,-24,-2,-45,-7,-64v-4,-18,-10,-35,-17,-50r34,0v6,12,12,28,17,47v5,19,8,42,8,69r0,104r-83,0xm62,1262r0,-106r48,0v0,-24,-2,-45,-7,-64v-4,-18,-10,-35,-17,-50r34,0v6,12,12,28,17,47v5,19,8,42,8,69r0,104r-83,0","w":357},"\u2026":{"d":"125,10v32,0,60,-28,60,-60v0,-32,-28,-60,-60,-60v-32,0,-60,28,-60,60v0,32,28,60,60,60xm354,10v32,0,60,-28,60,-60v0,-32,-28,-60,-60,-60v-32,0,-60,28,-60,60v0,32,28,60,60,60xm583,10v32,0,60,-28,60,-60v0,-32,-28,-60,-60,-60v-32,0,-60,28,-60,60v0,32,28,60,60,60","w":704},"\u2039":{"d":"219,-67r36,-36r-153,-152r152,-152r-35,-36r-188,188","w":276},"\u203a":{"d":"44,-407r152,152r-153,152r36,36r188,-188r-188,-188","w":296},"\u2122":{"d":"156,-721r-137,0r0,14r62,0r0,177r14,0r0,-177r61,0r0,-14xm193,-724r-43,193r15,0r31,-144r58,155r59,-155r30,144r14,0r-41,-193r-62,163","w":367},"\u00a0":{"w":276}}});
