/*!
 * The following copyright notice may not be removed under any circumstances.
 * 
 * Copyright:
 * 4.1 (c)1986-92 by Richard A. Ware. All Rights Reserved.
 */
Cufon.registerFont({"w":541,"face":{"font-family":"AlexandriaFLF","font-weight":500,"font-stretch":"normal","units-per-em":"1000","panose-1":"2 0 6 3 7 0 0 2 0 4","ascent":"800","descent":"-200","x-height":"11","bbox":"-82 -880 1068 1313","underline-thickness":"19","underline-position":"-124","unicode-range":"U+0020-U+2122"},"glyphs":{" ":{"w":352},"!":{"d":"112,-714r-41,0r0,532r41,0r0,-532xm92,-68v-21,-1,-36,15,-36,35v0,22,15,35,37,35v19,0,35,-15,35,-35v0,-20,-17,-35,-36,-35","w":176},"\"":{"d":"214,-727r-41,0r11,160r20,0xm102,-727r-41,0r10,160r21,0","w":270},"#":{"d":"207,-516r31,-126r-25,0r-30,126r-114,0r-8,24r116,0r-29,114r-102,0r-8,25r104,0r-31,126r25,0r31,-126r137,0r-32,131r25,0r32,-131r109,0r8,-25r-111,0r28,-114r103,0r8,-24r-105,0r31,-126r-24,0r-31,126r-138,0xm172,-378r29,-114r138,0r-29,114r-138,0","w":515},"$":{"d":"281,-368v78,22,136,72,136,169v0,95,-58,148,-136,166r0,-335xm281,-678v55,4,91,33,121,65r0,52r36,0r0,-144r-36,0r0,37v-33,-31,-74,-47,-121,-50r0,-52r-41,0r0,53v-70,8,-122,46,-148,101v-9,20,-14,42,-14,67v0,109,80,140,162,167r0,353v-86,-3,-131,-49,-166,-103r0,-66r-35,0r0,198r35,0r0,-70v35,43,90,77,166,79r0,52r41,0r0,-56v103,-13,178,-89,177,-204v-1,-123,-76,-179,-177,-208r0,-271xm240,-421v-62,-22,-122,-46,-122,-128v0,-75,52,-118,122,-129r0,257","w":484},"%":{"d":"660,-714r-40,0r-439,714r39,0xm354,-378v45,-40,78,-135,42,-214v-30,-67,-89,-120,-181,-120v-92,0,-151,53,-181,120v-36,79,0,172,42,214v46,45,138,77,215,42v24,-10,45,-25,63,-42xm154,-370v-69,-29,-122,-116,-84,-208v22,-54,71,-96,145,-96v74,0,120,43,145,96v29,63,0,140,-34,174v-37,36,-110,60,-172,34xm768,-40v45,-40,78,-135,42,-214v-30,-67,-89,-120,-181,-120v-92,0,-151,53,-181,120v-36,79,0,172,42,214v46,45,138,77,215,42v24,-10,45,-25,63,-42xm568,-32v-69,-29,-122,-116,-84,-208v22,-54,71,-96,145,-96v74,0,120,43,145,96v29,63,0,140,-34,174v-37,36,-110,60,-172,34","w":839},"&":{"d":"231,-36v-104,-2,-165,-60,-165,-162v0,-106,76,-155,137,-205r205,307v-47,29,-100,61,-177,60xm181,-532v-16,-91,48,-140,135,-141v63,0,113,10,150,33r0,71r39,0r0,-99v-59,-33,-171,-65,-259,-34v-60,21,-108,64,-109,142v-1,55,22,93,46,127v-73,55,-157,111,-157,235v0,149,116,227,271,196v55,-11,94,-35,134,-60r44,62r54,0r-66,-89v72,-68,105,-170,115,-293r66,0r0,-32r-171,0r0,32r67,0v-6,101,-41,202,-97,259r-241,-360v-10,-15,-18,-30,-21,-49","w":673},"'":{"d":"103,-714r-42,0r10,159r22,0","w":164},"(":{"d":"161,62v-75,-241,-77,-571,0,-816r-41,0v-38,127,-59,261,-59,408v0,152,23,284,59,408r41,0","w":204},")":{"d":"59,-754v77,246,75,574,0,816r41,0v80,-261,76,-563,0,-816r-41,0","w":204},"*":{"d":"110,-698v-32,0,-10,65,-3,85v-19,-17,-35,-43,-64,-47v-16,-2,-17,22,-5,30v16,11,43,20,65,24v-20,6,-50,12,-65,24v-15,7,-10,28,4,30v29,-6,46,-30,65,-47v-5,13,-16,43,-15,61v0,13,5,25,18,23v31,-5,8,-63,3,-84v20,16,34,42,64,46v16,2,18,-18,6,-27v-16,-12,-44,-21,-66,-26v22,-5,48,-14,65,-25v13,-8,11,-29,-5,-29v-30,0,-45,30,-64,47v6,-14,13,-42,13,-61v0,-13,-3,-24,-16,-24","w":214},"+":{"d":"149,-392r-102,0r0,41r102,0r0,102r41,0r0,-102r102,0r0,-41r-102,0r0,-102r-41,0r0,102","w":332},",":{"d":"135,-54r-35,-15r-74,163r13,9","w":163},"-":{"d":"258,-392r-206,0r0,41r206,0r0,-41","w":309},".":{"d":"83,4v19,0,36,-17,36,-36v0,-19,-17,-36,-36,-36v-19,0,-36,17,-36,36v0,19,17,36,36,36","w":163},"\/":{"d":"308,-714r-40,0r-245,714r40,0","w":316},"0":{"d":"382,-22v120,-78,170,-279,126,-470v-20,-86,-62,-157,-126,-199v-61,-41,-160,-39,-222,0v-121,76,-168,283,-126,470v20,87,62,156,126,199v61,41,160,40,222,0xm180,-59v-102,-71,-143,-248,-106,-416v17,-75,53,-140,106,-178v51,-37,131,-36,182,0v101,71,145,253,108,417v-17,76,-55,138,-108,177v-51,37,-130,36,-182,0"},"1":{"d":"297,-713r-102,0r0,36r61,0r0,641r-61,0r0,36r163,0r0,-36r-61,0r0,-677"},"2":{"d":"282,-678v96,1,167,42,167,133v0,106,-84,142,-145,193v-89,74,-192,137,-222,268r-18,84r426,0r0,-41r-367,0v32,-199,209,-255,317,-378v38,-44,67,-121,37,-191v-30,-67,-97,-108,-195,-108v-123,0,-187,68,-210,167r46,0v20,-75,67,-128,164,-127"},"3":{"d":"486,-192v-1,-103,-50,-165,-125,-192v68,-19,121,-73,121,-159v0,-90,-54,-142,-124,-167v-51,-19,-132,-17,-180,2v-64,25,-107,73,-119,145r42,0v14,-79,73,-120,170,-120v94,-1,172,48,170,140v-2,90,-63,133,-151,138r-62,0r0,41v45,1,84,-4,118,12v58,25,99,78,99,160v0,107,-72,156,-176,159v-96,3,-162,-44,-176,-118r-42,0v19,104,96,159,220,159v95,0,163,-42,196,-110v13,-25,19,-55,19,-90"},"4":{"d":"434,-214r0,-510r-31,0r-362,522r0,28r351,0r0,133r-41,0r0,41r123,0r0,-41r-40,0r0,-133r63,0r0,-40r-63,0xm392,-214r-294,0r294,-421r0,421"},"5":{"d":"29,-141v40,83,110,151,231,151v122,0,196,-68,234,-156v26,-61,25,-142,-1,-201v-38,-87,-113,-147,-232,-150v-51,-1,-91,13,-120,28r44,-201r225,0r0,52r41,0r0,-96r-297,0r-60,283r37,11v50,-37,140,-48,209,-20v75,31,132,94,132,197v0,99,-55,163,-127,195v-26,11,-54,17,-85,17v-103,-1,-160,-57,-194,-127"},"6":{"d":"347,-675v43,0,68,4,98,12r14,-41v-72,-20,-183,-14,-245,18v-126,65,-182,207,-182,400v0,140,51,237,147,281v59,26,143,27,201,1v84,-37,140,-114,140,-231v0,-111,-53,-184,-134,-219v-30,-13,-65,-20,-105,-20v-99,1,-165,44,-202,105v19,-169,82,-304,268,-306xm196,-41v-80,-44,-135,-142,-118,-263v35,-72,95,-130,203,-130v101,0,162,53,187,128v39,118,-18,230,-103,268v-50,22,-121,24,-169,-3"},"7":{"d":"237,-41v0,-310,127,-480,282,-638r0,-35r-481,0r0,109r41,0r0,-69r384,0v-150,148,-268,332,-267,633r-57,0r0,41r153,0r0,-41r-55,0"},"8":{"d":"193,-384v-77,27,-146,84,-146,188v0,95,57,155,129,186v54,23,137,23,190,0v73,-30,127,-90,127,-186v0,-105,-70,-162,-151,-188v74,-20,140,-67,140,-162v0,-118,-90,-177,-212,-177v-98,0,-165,40,-197,107v-10,22,-15,46,-15,71v2,93,62,141,135,161xm345,-671v68,22,119,91,85,175v-22,55,-80,87,-160,87v-79,0,-139,-31,-160,-87v-41,-110,43,-187,160,-187v29,0,53,5,75,12xm270,-355v130,1,207,96,166,220v-21,63,-80,102,-166,102v-86,0,-144,-39,-165,-102v-41,-122,36,-220,165,-220"},"9":{"d":"209,-35v-43,0,-68,-4,-98,-12r-14,41v72,20,183,14,245,-18v126,-65,182,-207,182,-400v0,-140,-51,-237,-147,-281v-59,-26,-143,-27,-201,-1v-84,37,-140,114,-140,231v0,111,53,184,134,219v30,13,65,20,105,20v99,-1,165,-43,202,-105v-19,169,-82,304,-268,306xm360,-669v80,44,135,142,118,263v-34,73,-96,130,-203,130v-101,0,-162,-53,-187,-128v-39,-118,18,-230,103,-268v50,-22,121,-24,169,3"},":":{"d":"83,4v19,0,36,-17,36,-36v0,-19,-17,-36,-36,-36v-19,0,-36,17,-36,36v0,19,17,36,36,36xm83,-402v19,0,36,-17,36,-36v0,-19,-17,-36,-36,-36v-19,0,-36,17,-36,36v0,19,17,36,36,36","w":163},";":{"d":"150,-54r-35,-15r-74,163r13,9xm104,-402v19,0,36,-17,36,-36v0,-19,-17,-36,-36,-36v-19,0,-36,17,-36,36v0,19,17,36,36,36","w":204},"<":{"d":"230,-529r-200,158r197,155r23,-25r-166,-130r169,-133","w":282},"=":{"d":"263,-331r-226,0r0,41r226,0r0,-41xm263,-453r-226,0r0,41r226,0r0,-41","w":296},">":{"d":"59,-216r197,-155r-200,-158r-23,25r169,133r-166,130","w":282},"?":{"d":"376,-526v0,123,-73,172,-193,174r0,170r41,0r0,-135v118,-12,192,-76,192,-209v0,-125,-73,-198,-198,-198v-105,0,-158,58,-188,132r38,18v23,-61,66,-109,150,-110v97,-1,158,62,158,158xm203,4v19,0,36,-17,36,-36v0,-19,-17,-36,-36,-36v-19,0,-36,17,-36,36v0,19,17,36,36,36","w":437},"@":{"d":"273,-279v-64,2,-94,-47,-94,-106v0,-68,44,-112,114,-112v59,0,93,40,93,99v0,71,-40,117,-113,119xm461,-218v-50,54,-185,72,-267,34v-80,-36,-137,-106,-137,-215v0,-107,62,-178,141,-214v57,-27,144,-26,202,-1v78,34,141,99,141,203v0,64,-22,129,-85,132v-40,2,-50,-34,-47,-73r13,-159r-19,0r-5,64v-15,-42,-46,-71,-105,-70v-83,1,-135,51,-135,132v0,76,36,127,115,127v65,0,99,-32,118,-75v1,40,16,77,61,75v82,-3,109,-73,109,-153v0,-112,-69,-184,-153,-221v-63,-28,-155,-26,-218,1v-108,47,-187,178,-137,326v37,110,150,184,303,157v47,-8,94,-26,119,-55","w":596},"A":{"d":"370,-669r148,408r-292,0xm216,-42r-67,0r62,-177r321,0r63,177r-68,0r0,42r173,0r0,-42r-56,0r-226,-630r56,0r0,-42r-208,0r0,42r56,0r-226,630r-63,0r0,42r183,0r0,-42","w":729},"B":{"d":"400,-394v58,-22,98,-71,96,-149v-3,-110,-71,-171,-184,-171r-292,0r0,42r77,0r0,630r-77,0r0,42r300,0v135,1,228,-71,226,-204v-1,-106,-64,-164,-146,-190xm448,-543v-2,79,-49,131,-127,131r-176,0r0,-260r170,0v80,-2,135,53,133,129xm498,-204v-3,107,-71,162,-177,162r-176,0r0,-328r176,0v81,2,136,39,163,97v10,21,14,44,14,69","w":564},"C":{"d":"661,-159v-58,65,-133,121,-257,121v-151,0,-247,-81,-294,-192v-32,-76,-32,-176,0,-252v47,-111,143,-188,294,-192v99,-1,164,39,217,82r0,63r48,0r0,-177r-48,0r0,55v-52,-41,-123,-71,-217,-71v-173,0,-284,96,-338,222v-37,88,-37,200,0,288v55,126,165,219,338,222v121,2,202,-46,257,-108r0,-61","w":703},"D":{"d":"633,-208v37,-85,38,-212,1,-298v-50,-118,-147,-208,-305,-208r-301,0r0,42r76,0r0,630r-76,0r0,42r299,0v157,-5,256,-91,306,-208xm152,-42r0,-630v103,4,207,-12,282,23v103,48,179,144,179,291v0,147,-76,243,-179,292v-76,36,-179,20,-282,24","w":673},"E":{"d":"446,-597r0,-117r-419,0r0,42r76,0r0,630r-76,0r0,42r419,0r0,-120r-42,0r0,78r-253,0r0,-334r189,0r0,51r42,0r0,-144r-42,0r0,51r-189,0r0,-254r253,0r0,75r42,0","w":485},"F":{"d":"452,-597r0,-117r-419,0r0,42r76,0r0,630r-76,0r0,42r201,0r0,-42r-77,0r0,-339r186,0r0,51r42,0r0,-144r-42,0r0,51r-186,0r0,-249r253,0r0,75r42,0","w":485},"G":{"d":"629,-643v-75,-72,-253,-107,-375,-50v-123,57,-219,166,-219,337v0,171,93,283,217,338v44,19,92,28,143,28v136,0,225,-57,267,-147r0,137r48,0r0,-304r76,0r0,-42r-379,0r0,42r258,0v-16,162,-91,268,-270,266v-149,-2,-243,-84,-289,-193v-31,-76,-31,-174,0,-250v46,-110,140,-190,289,-193v105,-2,178,44,234,93r0,65r48,0r0,-186r-48,0r0,59","w":801},"H":{"d":"234,-672r0,-42r-201,0r0,42r76,0r0,630r-76,0r0,42r201,0r0,-42r-77,0r0,-336r378,0r0,336r-77,0r0,42r201,0r0,-42r-76,0r0,-630r76,0r0,-42r-201,0r0,42r77,0r0,252r-378,0r0,-252r77,0","w":686},"I":{"d":"250,-672r0,-42r-194,0r0,42r73,0r0,630r-73,0r0,42r194,0r0,-42r-73,0r0,-630r73,0","w":302},"J":{"d":"140,69v89,-3,118,-57,118,-160r0,-581r58,0r0,-42r-173,0r0,42r67,0r0,581v-1,74,-9,109,-70,112v-29,1,-49,-12,-62,-27r-33,35v21,23,49,41,95,40","w":337},"K":{"d":"184,-672r0,-42r-150,0r0,42r51,0r0,630r-51,0r0,42r150,0r0,-42r-51,0r0,-305r15,-15r264,320r-53,0r0,42r166,0r0,-42r-52,0r-290,-353r277,-277r52,0r0,-42r-163,0r0,42r50,0r-266,266r0,-266r51,0","w":536},"L":{"d":"200,-672r0,-42r-163,0r0,42r57,0r0,630r-61,0r0,42r376,0r0,-103r-48,0r0,61r-219,0r0,-630r58,0","w":438},"M":{"d":"756,-626r0,584r-66,0r0,42r180,0r0,-42r-66,0r0,-630r66,0r0,-43r-121,0r-299,624r-299,-623r-121,0r0,42r66,0r0,630r-66,0r0,42r180,0r0,-42r-66,0r0,-584r306,640","w":893},"N":{"d":"627,-672r0,568r-513,-610r-89,0r0,42r61,0r0,630r-61,0r0,42r170,0r0,-42r-61,0r0,-568r517,612r24,0r0,-674r62,0r0,-42r-172,0r0,42r62,0","w":750},"O":{"d":"262,-19v87,39,197,39,284,0v125,-57,225,-164,225,-337v0,-172,-101,-281,-225,-337v-87,-39,-197,-39,-284,0v-88,38,-157,107,-195,195v-39,87,-39,197,0,284v38,88,107,157,195,195xm528,-63v-76,33,-171,33,-247,0v-108,-49,-195,-144,-195,-293v0,-150,87,-244,195,-293v76,-33,171,-34,247,0v109,48,195,143,195,293v0,149,-87,245,-195,293","w":804},"P":{"d":"266,-327v119,1,196,-74,194,-193v-2,-123,-71,-194,-194,-194r-247,0r0,42r66,0r0,630r-66,0r0,42r180,0r0,-42r-66,0r0,-285r133,0xm266,-672v88,0,146,60,146,152v0,98,-55,150,-146,151r-133,0r0,-303r133,0","w":485},"Q":{"d":"614,105v46,0,72,-9,106,-21r0,-44v-54,28,-154,27,-205,-1v-24,-13,-53,-26,-84,-31v153,-14,258,-106,312,-224v39,-85,38,-196,0,-282v-39,-88,-107,-157,-196,-195v-88,-39,-198,-39,-285,0v-125,57,-225,164,-225,337v0,170,97,280,221,336v45,20,94,30,146,30v-63,1,-114,7,-160,37r0,42v48,-27,90,-37,154,-38v92,0,120,54,216,54xm528,-63v-76,33,-171,33,-247,0v-108,-49,-195,-144,-195,-293v0,-150,87,-244,195,-293v76,-33,171,-34,247,0v109,48,195,143,195,293v0,149,-87,245,-195,293","w":811},"R":{"d":"416,-378v44,-41,71,-139,40,-217v-28,-70,-87,-119,-182,-119r-252,0r0,42r71,0r0,630r-71,0r0,42r189,0r0,-42r-71,0r0,-279r18,0r258,321r104,0r0,-42r-77,0r-225,-279v52,0,98,3,136,-15v24,-10,44,-25,62,-42xm278,-672v113,3,170,105,134,215v-18,54,-64,94,-134,94r-137,0r0,-309r137,0","w":549},"S":{"d":"261,-670v66,0,110,32,135,68r0,49r42,0r0,-152r-42,0r0,37v-37,-45,-131,-66,-204,-38v-63,25,-112,74,-114,157v-4,203,248,147,318,283v18,34,19,95,2,132v-24,56,-75,94,-152,94v-87,0,-133,-51,-165,-107r0,-58r-42,0r0,205r42,0r0,-70v31,39,89,80,165,78v102,-2,168,-50,198,-125v19,-48,18,-119,-2,-165v-40,-90,-147,-114,-238,-154v-45,-19,-77,-50,-78,-113v-2,-75,61,-121,135,-121","w":480},"T":{"d":"483,-714r-446,0r0,117r42,0r0,-75r158,0r0,630r-77,0r0,42r201,0r0,-42r-76,0r0,-630r156,0r0,75r42,0r0,-117","w":520},"U":{"d":"193,-673r0,-41r-172,0r0,41r62,0r0,491v4,124,85,189,207,189v91,0,157,-41,189,-105v12,-24,18,-52,18,-84r0,-491r61,0r0,-41r-170,0r0,41r61,0r0,495v0,111,-106,157,-215,130v-59,-14,-103,-56,-103,-130r0,-495r62,0","w":579},"V":{"d":"178,-714r-160,0r0,42r53,0r217,698r217,-698r52,0r0,-42r-160,0r0,42r60,0r-169,555r-169,-555r59,0r0,-42","w":573},"W":{"d":"211,-714r-187,0r0,42r69,0r216,698r180,-606r180,606r214,-698r75,0r0,-42r-193,0r0,42r70,0r-166,555r-180,-607r-180,608r-168,-556r70,0r0,-42","w":980},"X":{"d":"194,-714r-150,0r0,42r55,0r170,311r-181,319r-59,0r0,42r160,0r0,-42r-53,0r158,-278r159,278r-53,0r0,42r160,0r0,-42r-59,0r-184,-318r173,-312r55,0r0,-42r-150,0r0,42r47,0r-149,271r-146,-271r47,0r0,-42","w":588},"Y":{"d":"180,-714r-150,0r0,42r55,0r176,310r0,320r-56,0r0,42r160,0r0,-42r-56,0r0,-320r176,-310r57,0r0,-42r-151,0r0,42r46,0r-152,271r-152,-271r47,0r0,-42","w":569},"Z":{"d":"509,-714r-460,0r0,129r42,0r0,-87r341,0r-408,672r485,0r0,-139r-42,0r0,97r-361,0","w":546},"[":{"d":"167,-720r0,-36r-108,0r0,804r111,0r0,-35r-70,-1r0,-732r67,0","w":214},"\\":{"d":"267,0r-204,-714r-40,0r205,714r39,0","w":281},"]":{"d":"172,48r0,-804r-108,0r0,36r68,0r0,732r-71,1r0,35r111,0","w":214},"^":{"d":"163,-735r-112,286r29,11r99,-246r100,249r27,-14r-112,-286r-31,0","w":352},"_":{"d":"368,36r-367,0r0,35r367,0r0,-35","w":357},"`":{"d":"184,-603r28,-29r-124,-125r-30,29","w":265},"a":{"d":"127,-432v39,-40,128,-70,203,-45v57,19,101,61,102,137r0,57v-37,-50,-95,-84,-183,-84v-98,1,-164,47,-191,117v-43,109,16,212,101,244v26,10,55,16,88,16v89,1,147,-33,185,-80r0,70r114,0r0,-36r-74,0r0,-313v-4,-117,-81,-178,-199,-178v-68,0,-135,25,-170,62xm178,-44v-67,-25,-115,-100,-83,-188v21,-57,74,-94,154,-95v84,0,143,34,164,93v42,116,-40,205,-164,203v-27,0,-51,-5,-71,-13","w":566},"b":{"d":"411,-470v85,45,129,169,95,294v-22,81,-77,146,-177,146v-102,0,-156,-66,-179,-146v-36,-124,10,-250,95,-294v46,-24,120,-25,166,0xm329,-530v-100,1,-158,50,-191,117r0,-337r-102,0r0,36r61,0r0,678r-61,0r0,36r102,0r0,-100v35,63,91,112,191,111v122,-1,186,-75,215,-171v31,-102,6,-225,-42,-286v-37,-47,-92,-84,-173,-84","w":594},"c":{"d":"194,-468v58,-27,156,-26,209,5r0,47r36,0r0,-120r-36,0r0,26v-66,-25,-163,-25,-224,4v-90,41,-150,125,-150,250v0,124,58,209,148,249v33,15,71,22,114,22v68,1,113,-17,148,-47r0,-53v-35,34,-77,60,-148,59v-112,-2,-178,-59,-208,-143v-31,-90,-5,-199,42,-248v20,-20,41,-38,69,-51","w":481},"d":{"d":"272,11v99,0,157,-48,191,-111r0,100r102,0r0,-36r-61,0r0,-714r-114,0r0,36r73,0r0,301v-33,-67,-91,-117,-191,-117v-123,0,-188,74,-215,170v-42,147,11,298,113,348v29,14,63,23,102,23xm356,-470v86,45,131,169,95,294v-23,81,-77,146,-179,146v-100,0,-154,-66,-176,-146v-35,-125,10,-249,94,-294v46,-25,120,-24,166,0","w":602},"e":{"d":"466,-129v-36,60,-88,104,-186,102v-99,-2,-155,-60,-182,-137v-9,-28,-13,-57,-13,-89r436,0v8,-128,-52,-211,-139,-255v-57,-28,-142,-29,-200,0v-86,41,-143,126,-143,250v0,120,52,206,135,249v71,37,197,23,251,-15v32,-22,56,-51,76,-82xm477,-289r-388,0v4,-89,47,-152,112,-183v45,-22,113,-21,159,0v68,30,111,93,117,183","w":563},"f":{"d":"173,-740v-55,0,-86,37,-86,92r0,133r-56,0r0,35r56,0r0,444r-61,0r0,36r163,0r0,-36r-61,0r0,-444r98,0r0,-35r-98,0r0,-123v-1,-39,16,-60,50,-61v26,-1,43,8,60,15r0,-40v-18,-8,-35,-16,-65,-16","w":265},"g":{"d":"463,-413v-33,-67,-91,-117,-191,-117v-120,0,-183,76,-214,169v-33,103,-6,229,44,289v37,45,91,83,170,83v99,0,157,-48,191,-111r0,90v1,98,-63,163,-159,163v-55,0,-89,-16,-122,-32r-19,37v50,31,145,50,217,22v73,-28,124,-89,124,-189r0,-471r61,0r0,-35r-102,0r0,102xm356,-470v86,45,131,169,95,294v-23,81,-77,146,-179,146v-101,0,-153,-64,-176,-144v-36,-124,9,-251,94,-296v46,-24,120,-24,166,0","w":594},"h":{"d":"278,-530v-69,-2,-112,27,-140,66r0,-286r-102,0r0,36r61,0r0,678r-61,0r0,36r163,0r0,-36r-61,0r0,-339v6,-47,39,-82,78,-101v18,-9,38,-13,62,-13v89,2,139,45,139,143r0,310r-61,0r0,36r163,0r0,-36r-62,0r0,-326v-3,-110,-71,-165,-179,-168","w":546},"i":{"d":"149,-515r-102,0r0,35r61,0r0,444r-61,0r0,36r163,0r0,-36r-61,0r0,-479xm129,-627v18,0,32,-14,32,-32v0,-18,-14,-32,-32,-32v-18,0,-32,14,-32,32v0,18,14,32,32,32","w":255},"j":{"d":"43,144v57,-27,108,-60,108,-145r0,-514r-103,0r0,35r62,0r0,479v-1,65,-41,86,-88,109xm131,-627v18,0,32,-14,32,-32v0,-18,-14,-32,-32,-32v-18,0,-32,14,-32,32v0,18,14,32,32,32","w":220},"k":{"d":"148,-291r0,-459r-102,0r0,36r61,0r0,678r-61,0r0,36r163,0r0,-36r-61,0r0,-208r16,-15r223,223r-67,0r0,36r174,0r0,-36r-54,0r-245,-248r196,-196r70,0r0,-35r-205,0r0,35r81,0","w":527},"l":{"d":"135,-36r0,-714r-102,0r0,36r61,0r0,678r-61,0r0,36r163,0r0,-36r-61,0","w":227},"m":{"d":"244,-527v-58,0,-90,23,-112,53r0,-41r-102,0r0,35r61,0r0,444r-61,0r0,36r163,0r0,-36r-61,0r0,-354v4,-63,48,-96,112,-96v60,0,102,34,102,94r0,356r-61,0r0,36r163,0r0,-36r-61,0r0,-355v4,-63,49,-93,113,-95v58,-2,101,36,101,94r0,356r-61,0r0,36r163,0r0,-36r-61,0r0,-356v-4,-85,-55,-133,-142,-135v-69,-2,-109,30,-133,71v-20,-43,-58,-71,-123,-71","w":725},"n":{"d":"288,-530v-69,-1,-112,29,-140,67r0,-52r-102,0r0,35r61,0r0,444r-61,0r0,36r163,0r0,-36r-61,0r0,-343v7,-44,41,-78,79,-97v17,-9,38,-13,61,-13v91,1,139,50,140,143r0,310r-62,0r0,36r165,0r0,-36r-63,0r0,-326v-3,-110,-71,-166,-180,-168","w":561},"o":{"d":"462,-72v53,-59,84,-182,48,-287v-34,-95,-104,-171,-229,-171v-125,0,-196,75,-229,171v-36,104,-5,228,47,287v40,46,99,83,182,83v83,0,141,-37,181,-83xm370,-469v88,45,141,167,102,294v-25,82,-84,145,-191,145v-106,0,-166,-63,-191,-145v-38,-127,13,-251,102,-294v50,-24,129,-25,178,0","w":560},"p":{"d":"399,-470v86,45,134,167,99,294v-22,81,-77,146,-178,146v-101,0,-155,-66,-178,-146v-35,-122,7,-250,91,-294v46,-24,120,-24,166,0xm130,-100v34,63,91,111,190,111v123,0,187,-75,216,-171v31,-102,7,-225,-42,-286v-38,-47,-92,-84,-174,-84v-99,1,-157,49,-190,115r0,-100r-102,0r0,35r61,0r0,624r-61,0r0,36r163,0r0,-36r-61,0r0,-244","w":581},"q":{"d":"469,-413v-34,-66,-95,-117,-195,-117v-122,0,-184,74,-212,170v-30,103,-5,226,44,287v38,47,91,84,173,84v99,0,156,-48,190,-111r0,280r111,0r0,-41r-70,0r0,-619r61,0r0,-35r-102,0r0,102xm362,-470v85,45,131,169,95,294v-23,80,-77,146,-178,146v-101,0,-155,-65,-177,-146v-35,-124,9,-249,94,-294v46,-24,120,-24,166,0","w":602},"r":{"d":"229,-520v-50,0,-74,25,-92,53r0,-48r-102,0r0,35r61,0r0,444r-61,0r0,36r163,0r0,-36r-61,0r0,-348v3,-57,36,-96,92,-96v26,0,48,8,65,25r23,-33v-22,-19,-45,-32,-88,-32","w":334},"s":{"d":"197,-530v-88,3,-153,46,-153,132v0,120,114,131,205,162v43,15,76,38,77,94v1,71,-57,107,-129,107v-57,1,-100,-23,-131,-50r0,-51r-35,0r0,136r35,0r0,-36v54,52,192,56,250,4v28,-25,50,-59,50,-110v-2,-105,-87,-128,-171,-153v-65,-20,-108,-32,-110,-103v-2,-61,51,-95,112,-95v57,0,94,25,124,51r0,38r36,0r0,-119r-36,0r0,34v-28,-23,-68,-42,-124,-41","w":386},"t":{"d":"237,-43v-16,9,-36,17,-60,17v-33,0,-50,-19,-50,-58r0,-396r97,0r0,-35r-97,0r0,-156r-41,0r0,156r-56,0r0,35r56,0r0,401v0,56,28,94,85,93v29,0,48,-7,66,-16r0,-41","w":271},"u":{"d":"284,12v68,0,110,-28,139,-66r0,54r102,0r0,-36r-61,0r0,-479r-102,0r0,35r61,0r0,347v-9,39,-42,73,-78,91v-17,9,-38,13,-61,13v-91,-2,-140,-41,-140,-140r0,-346r-102,0r0,35r61,0r0,320v0,113,66,173,181,172","w":561},"v":{"d":"155,-480r0,-35r-127,0r0,35r40,0r162,480r19,0r152,-480r41,0r0,-35r-128,0r0,35r46,0r-117,379r-5,0r-129,-379r46,0","w":467},"w":{"d":"155,-480r0,-35r-127,0r0,35r40,0r162,480r12,0r126,-412r131,412r13,0r152,-480r41,0r0,-35r-127,0r0,35r45,0r-117,379r-132,-414r-11,0r-125,414r-129,-379r46,0","w":732},"x":{"d":"168,-515r-142,0r0,35r50,0r130,230r-126,214r-53,0r0,36r147,0r0,-36r-53,0r106,-184r112,184r-57,0r0,36r148,0r0,-36r-46,0r-137,-218r138,-226r47,0r0,-35r-143,0r0,35r54,0r-114,193r-112,-193r51,0r0,-35","w":453},"y":{"d":"207,-480r0,-35r-173,0r0,35r63,0r171,422r-88,225r-66,0r0,36r172,0r0,-36r-64,0r257,-647r53,0r0,-35r-154,0r0,35r58,0r-144,367r-149,-367r64,0","w":565},"z":{"d":"400,-515r-360,0r0,124r41,0r0,-89r250,0r-309,480r378,0r0,-120r-41,0r0,84r-262,0","w":434},"{":{"d":"49,-355v22,-22,42,-45,41,-90r0,-183v0,-46,7,-76,44,-84v11,-2,26,-4,43,-4r0,-34v-63,-1,-106,13,-117,62v-15,67,-7,164,-7,243v0,42,-27,67,-45,90v19,23,45,47,45,90r0,201v1,86,35,117,125,115r0,-31v-64,3,-88,-21,-88,-86r0,-199v0,-37,-22,-71,-41,-90","w":184},"|":{"d":"89,46r0,-801r-35,0r0,801r35,0","w":133},"}":{"d":"184,-355v-18,-23,-45,-48,-45,-90v0,-79,8,-175,-7,-243v-11,-49,-54,-63,-117,-62r0,34v46,-1,77,7,83,44v11,66,4,153,4,227v0,45,19,68,41,90v-19,19,-41,53,-41,90r0,199v1,46,-9,74,-46,82v-11,2,-25,4,-42,4r0,31v90,2,125,-29,125,-115r0,-201v-1,-43,26,-67,45,-90","w":184},"~":{"d":"326,-373v-68,-2,-95,-48,-166,-48v-48,0,-83,26,-102,48r27,25v19,-16,34,-36,75,-34v68,2,95,48,167,48v52,0,85,-21,110,-45r-26,-26v-19,16,-50,32,-85,32","w":484},"\u00a2":{"d":"297,-81v62,0,110,-17,142,-46r0,-49v-33,36,-78,54,-142,55r0,-461v44,0,76,10,106,24r0,47r36,0r0,-120r-36,0r0,27v-28,-11,-66,-18,-106,-18r0,-60r-42,0r0,62v-113,13,-182,80,-214,174v-10,31,-15,62,-15,95v0,156,88,249,229,270r0,60r42,0r0,-60xm255,-121v-112,-24,-186,-100,-186,-230v0,-97,47,-165,110,-203v23,-13,48,-22,76,-25r0,458","w":471},"\u00a3":{"d":"167,-81v41,-38,71,-97,72,-170r112,0r0,-36r-114,0v-24,-108,-132,-154,-136,-284v-2,-74,49,-107,119,-108v79,-1,130,38,142,104r41,0v-15,-94,-79,-144,-184,-144v-76,0,-127,35,-151,89v-35,79,14,166,47,214v29,43,66,79,79,129r-104,0r0,36r109,0v-3,69,-42,128,-85,170v-42,5,-72,24,-96,54r27,28v27,-27,41,-44,92,-44v71,-1,90,49,162,49v60,0,103,-26,131,-54r-29,-28v-26,29,-91,57,-142,36v-32,-13,-54,-36,-92,-41","w":439},"\u00a5":{"d":"83,-679r181,317r-102,0r0,35r102,0r0,62r-102,0r0,35r102,0r0,194r-56,0r0,36r153,0r0,-36r-56,0r0,-194r101,0r0,-35r-101,0r0,-62r101,0r0,-35r-101,0r188,-317r51,0r0,-35r-146,0r0,35r51,0r-162,278r-161,-278r51,0r0,-35r-145,0r0,35r51,0","w":556},"\u00a8":{"d":"87,-627v18,0,32,-14,32,-32v0,-18,-14,-32,-32,-32v-18,0,-32,14,-32,32v0,18,14,32,32,32xm225,-627v18,0,32,-14,32,-32v0,-18,-14,-32,-32,-32v-18,0,-32,14,-32,32v0,18,14,32,32,32","w":316},"\u00a9":{"d":"297,-293v-67,-1,-110,-37,-110,-101v0,-64,43,-99,110,-100v41,-1,72,18,95,34r0,-24v-24,-15,-51,-31,-95,-30v-79,2,-130,44,-130,120v0,76,51,119,130,121v44,2,75,-18,95,-35r0,-24v-24,22,-48,39,-95,39xm540,-287v27,-63,27,-141,0,-204v-40,-90,-119,-161,-243,-161v-123,0,-203,71,-243,161v-27,63,-27,141,0,204v40,90,119,161,243,161v123,0,203,-71,243,-161xm74,-296v-25,-58,-25,-130,0,-188v37,-83,110,-149,224,-149v114,0,187,66,224,149v25,58,25,130,0,188v-37,83,-110,149,-224,149v-114,0,-187,-66,-224,-149","w":588},"\u00ab":{"d":"223,-70r18,-18r-170,-169r171,-171r-18,-17r-187,188xm377,-70r17,-18r-170,-169r171,-171r-17,-17r-188,188","w":439},"\u00ae":{"d":"206,-536v36,2,59,-14,59,-49v0,-28,-22,-50,-51,-49r-70,0r0,182r14,0r0,-84r31,0r58,84r18,0xm215,-620v22,-1,35,15,36,35v3,45,-52,34,-93,35r0,-70r57,0xm260,-394v69,-29,122,-114,84,-206v-22,-54,-71,-97,-145,-97v-74,0,-120,44,-145,97v-29,63,0,138,34,172v37,36,110,60,172,34xm143,-407v-63,-25,-108,-103,-76,-188v23,-63,106,-107,188,-76v63,24,107,106,76,188v-24,63,-106,108,-188,76","w":404},"\u00b4":{"d":"216,-728r-29,-29r-125,125r29,29","w":265},"\u00b8":{"d":"177,91v0,-26,-23,-43,-40,-50r13,-41r-44,0r-16,45v17,7,43,18,43,40v1,48,-67,24,-81,4r0,40v13,13,34,25,58,25v38,0,67,-24,67,-63","w":209},"\u00bb":{"d":"49,-429r171,172r-170,170r17,18r188,-188r-189,-189xm198,-429r171,172r-170,170r17,18r188,-188r-189,-189","w":439},"\u00c0":{"d":"363,-757r23,-23r-99,-100r-24,24xm370,-669r148,408r-292,0xm216,-42r-67,0r62,-177r321,0r63,177r-68,0r0,42r173,0r0,-42r-56,0r-226,-630r56,0r0,-42r-208,0r0,42r56,0r-226,630r-63,0r0,42r183,0r0,-42","w":729},"\u00c2":{"d":"358,-871r-94,94r19,19r84,-85r85,85r18,-20r-93,-93r-19,0xm370,-669r148,408r-292,0xm216,-42r-67,0r62,-177r321,0r63,177r-68,0r0,42r173,0r0,-42r-56,0r-226,-630r56,0r0,-42r-208,0r0,42r56,0r-226,630r-63,0r0,42r183,0r0,-42","w":729},"\u00c6":{"d":"373,-671r0,304r-120,0xm716,-714r-468,0r0,42r77,0r-250,630r-61,0r0,42r179,0r0,-42r-70,0r115,-286r135,0r0,286r-76,0r0,42r419,0r0,-120r-42,0r0,78r-253,0r0,-334r189,0r0,51r42,0r0,-144r-42,0r0,51r-189,0r0,-254r253,0r0,75r42,0r0,-117","w":747},"\u00c7":{"d":"451,100v0,-26,-22,-46,-40,-53r13,-37v110,-4,185,-49,237,-108r0,-61v-58,65,-133,121,-257,121v-151,0,-247,-81,-294,-192v-32,-76,-32,-176,0,-252v47,-111,143,-188,294,-192v99,-1,164,39,217,82r0,63r48,0r0,-177r-48,0r0,55v-52,-41,-123,-71,-217,-71v-173,0,-284,96,-338,222v-37,86,-37,196,-2,283v51,125,157,213,317,226r-22,54v25,-1,47,11,48,31v0,46,-67,26,-80,4r0,40v13,13,33,25,58,25v38,0,66,-24,66,-63","w":703},"\u00c8":{"d":"271,-757r23,-23r-99,-100r-24,24xm446,-597r0,-117r-419,0r0,42r76,0r0,630r-76,0r0,42r419,0r0,-120r-42,0r0,78r-253,0r0,-334r189,0r0,51r42,0r0,-144r-42,0r0,51r-189,0r0,-254r253,0r0,75r42,0","w":485},"\u00c9":{"d":"351,-856r-23,-24r-99,100r22,23xm446,-597r0,-117r-419,0r0,42r76,0r0,630r-76,0r0,42r419,0r0,-120r-42,0r0,78r-253,0r0,-334r189,0r0,51r42,0r0,-144r-42,0r0,51r-189,0r0,-254r253,0r0,75r42,0","w":485},"\u00ca":{"d":"254,-871r-94,94r19,19r84,-85r85,85r18,-20r-94,-93r-18,0xm446,-597r0,-117r-419,0r0,42r76,0r0,630r-76,0r0,42r419,0r0,-120r-42,0r0,78r-253,0r0,-334r189,0r0,51r42,0r0,-144r-42,0r0,51r-189,0r0,-254r253,0r0,75r42,0","w":485},"\u00cb":{"d":"196,-765v18,0,32,-14,32,-32v0,-18,-14,-32,-32,-32v-18,0,-32,14,-32,32v0,18,14,32,32,32xm334,-765v18,0,32,-14,32,-32v0,-18,-14,-32,-32,-32v-18,0,-32,14,-32,32v0,18,14,32,32,32xm446,-597r0,-117r-419,0r0,42r76,0r0,630r-76,0r0,42r419,0r0,-120r-42,0r0,78r-253,0r0,-334r189,0r0,51r42,0r0,-144r-42,0r0,51r-189,0r0,-254r253,0r0,75r42,0","w":485},"\u00ce":{"d":"141,-871r-94,94r18,19r85,-85r85,85r18,-20r-94,-93r-18,0xm250,-672r0,-42r-194,0r0,42r73,0r0,630r-73,0r0,42r194,0r0,-42r-73,0r0,-630r73,0","w":302},"\u00cf":{"d":"82,-765v18,0,32,-14,32,-32v0,-18,-14,-32,-32,-32v-18,0,-32,14,-32,32v0,18,14,32,32,32xm220,-765v18,0,32,-14,32,-32v0,-18,-14,-32,-32,-32v-18,0,-32,14,-32,32v0,18,14,32,32,32xm250,-672r0,-42r-194,0r0,42r73,0r0,630r-73,0r0,42r194,0r0,-42r-73,0r0,-630r73,0","w":302},"\u00d4":{"d":"395,-871r-94,94r18,19r85,-85r85,85r18,-20r-94,-93r-18,0xm262,-19v87,39,197,39,284,0v125,-57,225,-164,225,-337v0,-172,-101,-281,-225,-337v-87,-39,-197,-39,-284,0v-88,38,-157,107,-195,195v-39,87,-39,197,0,284v38,88,107,157,195,195xm528,-63v-76,33,-171,33,-247,0v-108,-49,-195,-144,-195,-293v0,-150,87,-244,195,-293v76,-33,171,-34,247,0v109,48,195,143,195,293v0,149,-87,245,-195,293","w":804},"\u00d9":{"d":"288,-757r22,-23r-99,-100r-23,24xm193,-673r0,-41r-172,0r0,41r62,0r0,491v4,124,85,189,207,189v91,0,157,-41,189,-105v12,-24,18,-52,18,-84r0,-491r61,0r0,-41r-170,0r0,41r61,0r0,495v0,111,-106,157,-215,130v-59,-14,-103,-56,-103,-130r0,-495r62,0","w":579},"\u00db":{"d":"282,-871r-94,94r18,19r85,-85r85,85r18,-20r-94,-93r-18,0xm193,-673r0,-41r-172,0r0,41r62,0r0,491v4,124,85,189,207,189v91,0,157,-41,189,-105v12,-24,18,-52,18,-84r0,-491r61,0r0,-41r-170,0r0,41r61,0r0,495v0,111,-106,157,-215,130v-59,-14,-103,-56,-103,-130r0,-495r62,0","w":579},"\u00dc":{"d":"219,-765v18,0,32,-14,32,-32v0,-18,-14,-32,-32,-32v-18,0,-32,14,-32,32v0,18,14,32,32,32xm357,-765v18,0,32,-14,32,-32v0,-18,-14,-32,-32,-32v-18,0,-32,14,-32,32v0,18,14,32,32,32xm193,-673r0,-41r-172,0r0,41r62,0r0,491v4,124,85,189,207,189v91,0,157,-41,189,-105v12,-24,18,-52,18,-84r0,-491r61,0r0,-41r-170,0r0,41r61,0r0,495v0,111,-106,157,-215,130v-59,-14,-103,-56,-103,-130r0,-495r62,0","w":579},"\u00e0":{"d":"273,486v19,0,39,-3,58,-9v19,-6,36,-15,51,-27v15,-12,27,-27,36,-46v9,-18,14,-39,14,-64r0,-57v-7,11,-17,21,-28,31v-11,10,-25,19,-40,27v-15,8,-32,14,-51,19v-19,5,-40,7,-64,7v-32,0,-61,-5,-87,-16v-25,-10,-47,-24,-64,-41v-17,-17,-31,-37,-40,-60v-9,-23,-14,-46,-14,-71v0,-24,4,-47,13,-70v9,-23,22,-43,39,-61v17,-17,38,-31,63,-42v25,-11,55,-16,88,-16v27,0,51,3,72,8v20,5,37,12,52,20v15,8,27,17,37,26v9,9,17,18,24,26r0,-70r114,0r0,36r-74,0r0,313v0,28,-5,53,-16,75v-10,22,-24,41,-42,56v-17,15,-38,27,-63,35v-24,8,-50,12,-78,12v-32,0,-63,-5,-94,-16v-31,-11,-56,-26,-76,-46r24,-33v15,15,36,28,62,39v26,10,54,15,84,15xm85,179v0,18,3,36,10,54v7,17,17,33,31,47v13,14,30,25,51,34v21,9,45,13,72,13v29,0,55,-4,77,-13v22,-8,40,-19,55,-33v14,-14,25,-30,32,-48v7,-17,11,-35,11,-54v0,-19,-4,-37,-11,-55v-7,-17,-18,-33,-33,-47v-14,-14,-32,-25,-54,-34v-22,-8,-48,-12,-77,-12v-27,0,-51,4,-72,13v-20,8,-37,19,-51,33v-13,14,-24,30,-31,48v-7,17,-10,35,-10,54xm286,603r28,29r-124,125r-30,-29","w":566},"\u00e2":{"d":"267,-735r-117,119r23,22r107,-105r105,105r22,-23r-116,-118r-24,0xm127,-432v39,-40,128,-70,203,-45v57,19,101,61,102,137r0,57v-37,-50,-95,-84,-183,-84v-98,1,-164,47,-191,117v-43,109,16,212,101,244v26,10,55,16,88,16v89,1,147,-33,185,-80r0,70r114,0r0,-36r-74,0r0,-313v-4,-117,-81,-178,-199,-178v-68,0,-135,25,-170,62xm178,-44v-67,-25,-115,-100,-83,-188v21,-57,74,-94,154,-95v84,0,143,34,164,93v42,116,-40,205,-164,203v-27,0,-51,-5,-71,-13","w":566},"\u00e6":{"d":"178,-44v-67,-25,-115,-100,-83,-188v21,-57,74,-94,154,-95v84,0,143,34,164,93v42,116,-40,205,-164,203v-27,0,-51,-5,-71,-13xm855,-294r-381,0v6,-83,51,-144,111,-176v44,-24,109,-24,154,0v62,32,108,93,116,176xm848,-129v-38,58,-90,104,-188,102v-98,-2,-150,-67,-176,-143v-9,-27,-13,-55,-13,-83r432,0v8,-129,-54,-211,-142,-255v-30,-14,-63,-21,-100,-21v-95,0,-161,53,-199,116v-30,-95,-167,-141,-283,-98v-31,11,-56,26,-76,46r24,33v39,-40,128,-70,203,-45v57,19,101,61,102,137r0,57v-37,-50,-92,-86,-185,-84v-99,1,-163,48,-190,119v-41,110,18,210,102,242v26,10,55,16,88,16v89,1,147,-33,185,-80r0,70r40,0r0,-81v40,54,98,95,189,95v115,1,179,-50,222,-120","w":949},"\u00e7":{"d":"341,106v0,-26,-23,-43,-40,-50r13,-41v50,-3,97,-20,125,-47r0,-53v-35,34,-77,60,-148,59v-112,-2,-178,-59,-208,-143v-31,-90,-5,-198,42,-248v37,-40,90,-70,166,-70v46,0,80,6,112,24r0,47r36,0r0,-120r-36,0r0,26v-66,-25,-163,-25,-224,4v-90,41,-150,125,-150,250v0,120,54,201,136,244v30,16,65,24,105,27r-19,53v22,-1,46,15,46,34v0,16,-11,30,-28,29v-24,0,-41,-14,-53,-27r0,40v13,13,32,27,56,27v38,0,69,-26,69,-65","w":481},"\u00e8":{"d":"280,27v-30,0,-57,6,-81,18v-24,11,-45,27,-62,47v-17,20,-30,44,-39,72v-9,27,-13,57,-13,89r436,0v1,5,1,9,1,14r0,17v0,30,-6,60,-17,89v-11,29,-27,55,-48,78v-21,23,-46,42,-76,57v-29,14,-63,21,-101,21v-35,0,-68,-7,-98,-21v-29,-14,-55,-33,-76,-58v-21,-24,-38,-53,-50,-86v-11,-33,-17,-68,-17,-106v0,-35,5,-68,15,-101v10,-33,25,-62,45,-87v20,-25,45,-46,75,-61v30,-15,65,-23,106,-23v32,0,60,4,84,11v23,7,44,16,61,27v17,11,32,24,44,39v12,14,23,28,32,43r-35,23v-8,-13,-17,-25,-27,-38v-10,-12,-22,-23,-37,-32v-14,-9,-31,-17,-51,-23v-20,-6,-44,-9,-71,-9xm477,289r-388,0v1,26,6,51,15,75v9,23,21,44,38,63v16,19,36,34,59,45v23,11,50,16,79,16v29,0,56,-5,80,-16v23,-11,44,-25,61,-43v17,-18,30,-39,40,-64v9,-24,15,-49,16,-76xm294,603r28,29r-124,125r-30,-29","w":563},"\u00e9":{"d":"381,-728r-30,-29r-124,125r28,29xm466,-129v-36,60,-88,104,-186,102v-99,-2,-155,-60,-182,-137v-9,-28,-13,-57,-13,-89r436,0v8,-128,-52,-211,-139,-255v-57,-28,-142,-29,-200,0v-86,41,-143,126,-143,250v0,120,52,206,135,249v71,37,197,23,251,-15v32,-22,56,-51,76,-82xm477,-289r-388,0v4,-89,47,-152,112,-183v45,-22,113,-21,159,0v68,30,111,93,117,183","w":563},"\u00ea":{"d":"269,-735r-117,119r24,22r106,-105r105,105r22,-23r-116,-118r-24,0xm466,-129v-36,60,-88,104,-186,102v-99,-2,-155,-60,-182,-137v-9,-28,-13,-57,-13,-89r436,0v8,-128,-52,-211,-139,-255v-57,-28,-142,-29,-200,0v-86,41,-143,126,-143,250v0,120,52,206,135,249v71,37,197,23,251,-15v32,-22,56,-51,76,-82xm477,-289r-388,0v4,-89,47,-152,112,-183v45,-22,113,-21,159,0v68,30,111,93,117,183","w":563},"\u00eb":{"d":"208,-627v18,0,32,-14,32,-32v0,-18,-14,-32,-32,-32v-18,0,-32,14,-32,32v0,18,14,32,32,32xm346,-627v18,0,32,-14,32,-32v0,-18,-14,-32,-32,-32v-18,0,-32,14,-32,32v0,18,14,32,32,32xm466,-129v-36,60,-88,104,-186,102v-99,-2,-155,-60,-182,-137v-9,-28,-13,-57,-13,-89r436,0v8,-128,-52,-211,-139,-255v-57,-28,-142,-29,-200,0v-86,41,-143,126,-143,250v0,120,52,206,135,249v71,37,197,23,251,-15v32,-22,56,-51,76,-82xm477,-289r-388,0v4,-89,47,-152,112,-183v45,-22,113,-21,159,0v68,30,111,93,117,183","w":563},"\u00ee":{"d":"111,-735r-117,119r23,22r106,-105r106,105r22,-23r-116,-118r-24,0xm154,-515r-102,0r0,41r61,0r0,433r-61,0r0,41r163,0r0,-41r-61,0r0,-474","w":255},"\u00ef":{"d":"154,-515r-102,0r0,41r61,0r0,433r-61,0r0,41r163,0r0,-41r-61,0r0,-474xm59,-627v18,0,32,-14,32,-32v0,-18,-14,-32,-32,-32v-18,0,-32,14,-32,32v0,18,14,32,32,32xm197,-627v18,0,32,-14,32,-32v0,-18,-14,-32,-32,-32v-18,0,-32,14,-32,32v0,18,14,32,32,32","w":255},"\u00f4":{"d":"268,-735r-117,119r23,22r107,-105r105,105r22,-23r-116,-118r-24,0xm462,-72v53,-59,84,-182,48,-287v-34,-95,-104,-171,-229,-171v-125,0,-196,75,-229,171v-36,104,-5,228,47,287v40,46,99,83,182,83v83,0,141,-37,181,-83xm370,-469v88,45,141,167,102,294v-25,82,-84,145,-191,145v-106,0,-166,-63,-191,-145v-38,-127,13,-251,102,-294v50,-24,129,-25,178,0","w":560},"\u00f9":{"d":"282,-603r28,-29r-124,-125r-30,29xm284,12v68,0,110,-28,139,-66r0,54r102,0r0,-36r-61,0r0,-479r-102,0r0,35r61,0r0,347v-9,39,-42,73,-78,91v-17,9,-38,13,-61,13v-91,-2,-140,-41,-140,-140r0,-346r-102,0r0,35r61,0r0,320v0,113,66,173,181,172","w":577},"\u00fb":{"d":"261,-735r-117,119r23,22r106,-105r106,105r22,-23r-116,-118r-24,0xm284,12v68,0,110,-28,139,-66r0,54r102,0r0,-36r-61,0r0,-479r-102,0r0,35r61,0r0,347v-9,39,-42,73,-78,91v-17,9,-38,13,-61,13v-91,-2,-140,-41,-140,-140r0,-346r-102,0r0,35r61,0r0,320v0,113,66,173,181,172","w":577},"\u00fc":{"d":"208,-627v18,0,32,-14,32,-32v0,-18,-14,-32,-32,-32v-18,0,-32,14,-32,32v0,18,14,32,32,32xm346,-627v18,0,32,-14,32,-32v0,-18,-14,-32,-32,-32v-18,0,-32,14,-32,32v0,18,14,32,32,32xm284,12v68,0,110,-28,139,-66r0,54r102,0r0,-36r-61,0r0,-479r-102,0r0,35r61,0r0,347v-9,39,-42,73,-78,91v-17,9,-38,13,-61,13v-91,-2,-140,-41,-140,-140r0,-346r-102,0r0,35r61,0r0,320v0,113,66,173,181,172","w":577},"\u00ff":{"d":"222,-627v18,0,32,-14,32,-32v0,-18,-14,-32,-32,-32v-18,0,-32,14,-32,32v0,18,14,32,32,32xm360,-627v18,0,32,-14,32,-32v0,-18,-14,-32,-32,-32v-18,0,-32,14,-32,32v0,18,14,32,32,32xm207,-480r0,-35r-173,0r0,35r63,0r171,422r-88,225r-66,0r0,36r172,0r0,-36r-64,0r257,-647r53,0r0,-35r-154,0r0,35r58,0r-144,367r-149,-367r64,0","w":565},"\u0152":{"d":"528,-63v-76,33,-171,33,-247,0v-108,-49,-195,-144,-195,-293v0,-150,87,-244,195,-293v76,-33,171,-34,247,0v109,48,195,143,195,293v0,149,-87,245,-195,293xm404,10v161,0,258,-85,321,-189r0,137r-76,0r0,42r419,0r0,-120r-41,0r0,78r-254,0r0,-334r192,0r0,51r39,0r0,-144r-39,0r0,51r-192,0r0,-254r254,0r0,75r41,0r0,-117r-419,0r0,42r76,0r0,139v-63,-105,-160,-189,-321,-189v-172,0,-281,100,-337,224v-39,87,-39,197,0,284v38,88,107,157,195,195v44,19,91,29,142,29","w":1114},"\u0153":{"d":"370,-469v88,45,141,167,102,294v-25,82,-84,145,-191,145v-106,0,-166,-63,-191,-145v-38,-127,13,-251,102,-294v50,-24,129,-25,178,0xm910,-294r-380,0v6,-83,50,-144,110,-176v44,-24,109,-24,154,0v62,32,108,93,116,176xm500,-382v-37,-82,-102,-148,-219,-148v-125,0,-196,75,-229,171v-36,104,-5,228,47,287v40,46,99,84,182,83v116,-2,182,-64,218,-146v36,83,100,148,217,149v115,1,179,-50,222,-120r-35,-23v-38,58,-90,104,-188,102v-98,-2,-149,-67,-175,-143v-9,-27,-13,-55,-13,-83r431,0v8,-129,-54,-211,-142,-255v-30,-14,-63,-21,-100,-21v-108,0,-180,69,-216,147","w":990},"\u0178":{"d":"215,-765v18,0,32,-14,32,-32v0,-18,-14,-32,-32,-32v-18,0,-32,14,-32,32v0,18,14,32,32,32xm353,-765v18,0,32,-14,32,-32v0,-18,-14,-32,-32,-32v-18,0,-32,14,-32,32v0,18,14,32,32,32xm180,-714r-150,0r0,42r55,0r176,310r0,320r-56,0r0,42r160,0r0,-42r-56,0r0,-320r176,-310r57,0r0,-42r-151,0r0,42r46,0r-152,271r-152,-271r47,0r0,-42","w":569},"\u02c6":{"d":"166,-735r-117,119r23,22r107,-105r105,105r22,-23r-116,-118r-24,0","w":352},"\u02da":{"d":"0,-60v44,0,82,-38,82,-82v0,-44,-38,-82,-82,-82v-44,0,-82,38,-82,82v0,44,38,82,82,82xm0,-80v-34,0,-62,-28,-62,-62v0,-34,28,-62,62,-62v34,0,62,28,62,62v0,34,-28,62,-62,62","w":352},"\u02dc":{"d":"283,-637v-53,-3,-69,-49,-129,-48v-48,1,-78,23,-97,51r28,23v13,-15,31,-35,64,-34v62,2,67,48,134,48v47,0,74,-26,95,-47r-29,-22v-15,14,-31,31,-66,29","w":433},"\u2013":{"d":"373,-290r-331,0r0,41r331,0r0,-41","w":413},"\u2014":{"d":"782,-290r-720,0r0,41r720,0r0,-41","w":842},"\u2018":{"d":"66,-728v-26,39,-15,122,-17,186r61,0r0,-71r-33,0v-2,-46,0,-91,18,-115r-29,0","w":163},"\u2019":{"d":"113,-551v26,-39,15,-122,17,-186r-61,0r0,71r33,0v2,46,0,91,-18,115r29,0","w":182},"\u201a":{"d":"69,1313r0,-71r33,0r0,-49v0,-16,-2,-29,-6,-40v-4,-10,-8,-19,-12,-26r29,0v4,7,8,16,12,26v3,10,5,23,5,40r0,120r-61,0","w":184},"\u201c":{"d":"66,-728v-26,39,-15,122,-17,186r61,0r0,-71r-33,0v-2,-46,0,-91,18,-115r-29,0xm195,-728v-26,39,-15,122,-17,186r61,0r0,-71r-33,0v-2,-46,0,-91,18,-115r-29,0","w":286},"\u201d":{"d":"232,-551v26,-39,15,-122,17,-186r-61,0r0,71r33,0v2,46,0,91,-18,115r29,0xm103,-551v26,-39,15,-122,17,-186r-61,0r0,71r33,0v2,46,0,91,-18,115r29,0","w":301},"\u201e":{"d":"194,1313r0,-71r33,0r0,-49v0,-16,-2,-29,-6,-40v-4,-10,-8,-19,-12,-26r29,0v4,7,8,16,12,26v3,10,5,23,5,40r0,120r-61,0xm65,1313r0,-71r33,0r0,-49v0,-16,-2,-29,-6,-40v-4,-10,-8,-19,-12,-26r29,0v4,7,8,16,12,26v3,10,5,23,5,40r0,120r-61,0","w":301},"\u2026":{"d":"83,4v19,0,36,-17,36,-36v0,-19,-17,-36,-36,-36v-19,0,-36,17,-36,36v0,19,17,36,36,36xm240,4v19,0,36,-17,36,-36v0,-19,-17,-36,-36,-36v-19,0,-36,17,-36,36v0,19,17,36,36,36xm397,4v19,0,36,-17,36,-36v0,-19,-17,-36,-36,-36v-19,0,-36,17,-36,36v0,19,17,36,36,36","w":463},"\u2039":{"d":"217,-70r18,-18r-170,-169r171,-171r-18,-17r-187,188","w":290},"\u203a":{"d":"49,-429r171,172r-170,170r17,18r188,-188r-189,-189","w":290},"\u2122":{"d":"148,-706r-109,0r0,6r51,0r0,154r7,0r0,-154r51,0r0,-6xm179,-708r-36,161r7,0r30,-138r50,146r50,-146r28,138r7,0r-33,-161r-52,148","w":337},"\u00a0":{"w":352}}});
