/*!
 * The following copyright notice may not be removed under any circumstances.
 * 
 * Copyright:
 * (c)2004, Copyleft by Yeah Noah. All lefts reversed.
 */
Cufon.registerFont({"w":526,"face":{"font-family":"Existence","font-weight":300,"font-stretch":"normal","units-per-em":"1000","panose-1":"2 11 2 0 0 2 0 2 0 4","ascent":"800","descent":"-200","x-height":"9","bbox":"-122 -893 1134 741","underline-thickness":"50","underline-position":"-100","unicode-range":"U+0020-U+2122"},"glyphs":{" ":{"w":325},"!":{"d":"62,0r0,-60r60,0r0,60r-60,0xm77,-164r0,-536r30,0r0,536r-30,0","w":184},"\"":{"d":"62,560r0,140r30,0r0,-140r-30,0xm152,560r0,140r30,0r0,-140r-30,0","w":244},"#":{"d":"28,-190r5,-30r307,0r32,-215r30,0r-32,215r106,0r-5,30r-105,0r-29,190r-30,0r28,-190r-172,0r-29,190r-30,0r28,-190r-104,0xm69,-465r5,-30r104,0r31,-205r31,0r-31,205r172,0r31,-205r31,0r-31,205r105,0r-5,30r-308,0r-33,215r-30,0r33,-215r-105,0","w":535},"$":{"d":"456,-180v2,107,-86,188,-188,194r0,91r-30,0r0,-90v-89,-3,-157,-49,-184,-119r28,-12v24,58,81,98,156,101r0,-293r30,11r0,281v86,-5,159,-74,158,-164v-1,-74,-65,-108,-116,-132v-87,-40,-195,-61,-242,-140v-12,-20,-18,-43,-18,-68v-1,-108,85,-188,188,-194r0,-91r30,0r0,90v89,3,156,50,184,119r-28,12v-29,-64,-81,-98,-156,-101r0,293r-30,-11r0,-281v-86,7,-159,73,-158,164v1,74,65,108,116,132v87,40,195,61,242,140v12,20,18,43,18,68","w":506},"%":{"d":"60,-7r361,-700r26,14r-361,700xm127,-542v-56,-5,-90,-88,-48,-134v13,-15,29,-24,48,-27r0,30v-51,10,-46,91,0,100r0,31xm350,4v-56,-5,-90,-86,-48,-132v13,-15,29,-25,48,-28r0,30v-51,10,-46,91,0,100r0,30xm380,-156v56,5,90,86,48,132v-13,15,-29,25,-48,28r0,-30v20,-6,37,-25,37,-50v0,-25,-17,-44,-37,-50r0,-30xm157,-703v56,5,90,87,48,133v-13,15,-29,25,-48,28r0,-31v20,-6,37,-25,37,-50v0,-25,-17,-44,-37,-50r0,-30","w":507},"&":{"d":"286,-362v-104,4,-201,70,-201,168v0,113,123,169,249,166r0,30v-143,3,-279,-66,-279,-196v0,-96,75,-161,158,-185v-60,-23,-104,-75,-105,-153v0,-118,107,-187,235,-171r-2,30v-111,-14,-203,41,-203,141v0,82,66,135,148,140r0,30xm364,-362r-48,0r0,-30r48,0r0,-47r30,0r0,47r48,0r0,30r-48,0r0,361v-13,1,-23,2,-30,2r0,-363","w":487},"'":{"d":"50,-560r0,-140r30,0r0,140r-30,0","w":130},"(":{"d":"85,-350v0,186,76,334,178,440r-22,20v-107,-112,-186,-265,-186,-460v0,-194,79,-349,186,-460r22,20v-102,107,-178,254,-178,440","w":263},")":{"d":"22,-810v107,112,186,265,186,460v0,194,-79,349,-186,460r-22,-20v103,-107,178,-253,178,-440v0,-185,-76,-334,-178,-440","w":263},"*":{"d":"212,-674r0,130r124,-40r8,28r-124,40r77,104r-24,18r-77,-104r-75,103r-24,-18r75,-103r-122,-40r10,-28r122,40r0,-130r30,0","w":394},"+":{"d":"50,-294r0,-30r165,0r0,-165r30,0r0,165r165,0r0,30r-165,0r0,165r-30,0r0,-165r-165,0","w":460},",":{"d":"62,-60r60,0r0,85v0,47,-16,77,-47,88r-10,-28v24,-5,29,-46,27,-85r-30,0r0,-60","w":184},"-":{"d":"50,-294r0,-30r260,0r0,30r-260,0","w":360},".":{"d":"62,0r0,-60r60,0r0,60r-60,0","w":184},"\/":{"d":"48,46r-28,-12r387,-829r28,12","w":455},"0":{"d":"146,-46v-111,-124,-115,-477,0,-607v31,-36,66,-57,107,-61r0,30v-51,7,-91,43,-120,108v-57,125,-57,330,0,454v29,65,69,100,120,106r0,30v-41,-4,-76,-25,-107,-60xm389,-653v112,125,116,475,0,606v-31,35,-65,57,-106,61r0,-30v80,-11,126,-98,145,-179v36,-148,16,-344,-55,-431v-26,-33,-55,-53,-90,-58r0,-30v41,4,74,26,106,61","w":536},"1":{"d":"320,0r-30,0r0,-694r30,-38r0,732xm122,-435r-24,-18r162,-203r0,48"},"2":{"d":"246,-715v109,-1,209,75,209,188v0,55,-34,122,-57,153v-13,17,-32,40,-56,67r-216,247r-38,0r235,-271v40,-48,57,-62,84,-119v12,-25,18,-49,18,-72v4,-98,-86,-164,-179,-163v-77,0,-132,33,-166,100r-27,-12v39,-79,104,-118,193,-118xm474,-30r0,30r-438,0r26,-30r412,0"},"3":{"d":"342,-670r-261,0r0,-30r282,0xm284,-640r37,0r-154,217v111,5,186,35,243,97v65,70,61,173,-5,238v-75,74,-207,106,-349,89r5,-30v104,14,210,-5,281,-47v90,-53,116,-152,46,-230v-59,-66,-146,-89,-278,-89"},"4":{"d":"475,-159r0,30r-84,0r0,129r-30,0r0,-684r30,-53r0,578r84,0xm95,-159r236,0r0,30r-288,0r288,-503r0,61"},"5":{"d":"363,-670r-273,0r0,-30r273,0r0,30xm90,-640r30,0r0,217v123,-6,227,28,290,97v65,71,60,173,-6,238v-75,74,-207,106,-349,89r5,-30v104,14,209,-5,280,-47v90,-53,117,-151,48,-230v-59,-67,-173,-97,-298,-86r0,-248"},"6":{"d":"252,-370v-86,5,-162,85,-162,177v0,93,75,173,162,178r0,29v-103,-5,-192,-98,-192,-207r0,-216v-1,-195,95,-311,302,-293r0,30v-182,-17,-271,70,-272,263r0,109v30,-53,89,-94,162,-100r0,30xm282,-400v104,3,194,99,194,207v0,109,-90,203,-194,207r0,-29v88,-4,164,-85,164,-178v0,-92,-76,-174,-164,-177r0,-30"},"7":{"d":"232,5r-29,-7r214,-638r32,0xm60,-670r0,-30r409,0r-10,30r-399,0"},"8":{"d":"248,-370v-87,4,-163,85,-163,177v0,92,76,173,163,178r0,30v-104,-3,-194,-100,-193,-208v1,-93,62,-168,133,-194v-53,-24,-96,-83,-97,-155v-1,-89,73,-167,157,-171r0,30v-68,5,-127,68,-127,141v0,73,59,137,127,141r0,31xm278,-15v87,-5,163,-86,163,-178v0,-92,-76,-173,-163,-177r0,-31v68,-5,127,-68,127,-141v0,-73,-59,-136,-127,-141r0,-30v84,4,158,82,157,171v-1,72,-44,131,-97,155v72,26,132,101,133,194v1,108,-89,205,-193,208r0,-30"},"9":{"d":"274,-330v86,-5,162,-85,162,-177v0,-93,-75,-173,-162,-178r0,-30v103,5,192,99,192,208r0,216v1,195,-95,311,-302,293r0,-30v182,17,271,-70,272,-263r0,-109v-30,53,-89,94,-162,100r0,-30xm244,-300v-104,-3,-194,-99,-194,-207v0,-109,90,-205,194,-208r0,30v-88,4,-164,85,-164,178v0,92,76,174,164,177r0,30"},":":{"d":"62,0r0,60r60,0r0,-60r-60,0xm62,-476r0,60r60,0r0,-60r-60,0","w":184},";":{"d":"62,-476r0,60r60,0r0,-60r-60,0xm62,60r60,0r0,-85v0,-47,-16,-77,-47,-88r-10,28v18,6,27,26,27,60r0,25r-30,0r0,60","w":184},"<":{"d":"500,-146r-10,28r-440,-170r440,-170r10,28r-367,142","w":550},"=":{"d":"50,-341r0,-30r360,0r0,30r-360,0xm50,-247r0,-30r360,0r0,30r-360,0","w":460},">":{"d":"60,-118r-10,-28r367,-142r-367,-142r10,-28r440,170","w":550},"?":{"d":"208,0r0,-60r60,0r0,60r-60,0xm242,-715v109,-1,213,74,210,187v-3,97,-50,132,-118,172v-46,28,-81,49,-81,111r0,81r-30,0r0,-81v0,-56,33,-101,97,-137v57,-32,100,-66,102,-146v3,-96,-88,-158,-180,-157v-77,0,-132,33,-165,100r-26,-14v39,-77,103,-116,191,-116","w":502},"@":{"d":"427,-558v79,0,131,65,131,149r0,171v0,23,37,48,65,48v82,0,132,-80,132,-160v0,-180,-155,-335,-335,-335v-180,0,-335,155,-335,335v0,180,155,335,335,335v49,0,101,-13,155,-38r12,28v-55,27,-110,40,-167,40v-196,0,-365,-169,-365,-365v0,-196,169,-365,365,-365v196,0,365,169,365,365v0,97,-62,190,-162,190v-39,0,-95,-37,-95,-78r0,-171v2,-64,-40,-119,-101,-119v-44,0,-81,15,-112,46r-22,-22v36,-36,81,-54,134,-54xm255,-303v0,-117,139,-183,243,-124r0,36v-27,-19,-57,-28,-89,-28v-63,-1,-124,49,-124,116v0,67,61,118,124,117v35,0,64,-8,89,-24r0,35v-26,13,-56,19,-89,19v-79,1,-154,-62,-154,-147","w":840},"A":{"d":"472,-219r-171,-455r16,-43r268,712r-28,10r-73,-194r-302,0r11,-30r279,0xm285,-631r16,42r-224,594r-28,-10","w":634},"B":{"d":"416,-530v0,85,-59,135,-135,157v62,13,110,35,144,67v34,32,51,69,51,114v0,59,-30,106,-88,141v-61,37,-150,54,-258,52r0,-30v98,1,180,-14,236,-43v105,-54,105,-186,0,-240v-57,-29,-138,-45,-236,-44r0,-30v84,2,156,-11,198,-40v76,-51,76,-159,-2,-208v-43,-27,-112,-41,-196,-39r0,-30v94,-2,171,13,218,47v45,32,68,74,68,126xm70,-700v7,0,17,-1,30,-2r0,702v-8,0,-18,-1,-30,-2r0,-698"},"C":{"d":"466,-30r2,30v-80,7,-161,1,-222,-27v-84,-39,-139,-107,-170,-193v-29,-82,-28,-178,0,-260v50,-148,182,-246,392,-221r-2,30v-75,-7,-149,-1,-206,25v-77,35,-126,98,-155,177v-27,75,-25,162,0,238v46,136,168,224,361,201","w":518},"D":{"d":"130,-703v161,-12,280,74,330,182v42,89,48,203,14,301v-47,135,-155,230,-344,223r0,-30v172,7,272,-78,316,-204v27,-75,27,-163,0,-238v-43,-124,-144,-214,-316,-204r0,-30xm100,2r-30,-2r0,-700r30,-2r0,704","w":551},"E":{"d":"100,0r-30,0r0,-700r30,0r0,700xm466,-670r-336,0r0,-30r336,0r0,30xm400,-376r-270,0r0,-30r270,0r0,30xm466,0r-336,0r0,-30r336,0r0,30","w":521},"F":{"d":"70,-700r30,0r0,700r-30,0r0,-700xm466,-670r-336,0r0,-30r336,0r0,30xm400,-376r-270,0r0,-30r270,0r0,30","w":521},"G":{"d":"162,-572v-62,72,-102,216,-57,341v44,124,142,211,316,204r0,30v-187,7,-297,-86,-345,-223v-34,-98,-25,-212,16,-301v47,-100,156,-185,302,-183v23,0,52,1,87,4r0,31v-80,-9,-159,-6,-221,23v-40,19,-72,44,-98,74xm451,-308r30,0r0,308v-7,0,-17,1,-30,2r0,-310","w":547},"H":{"d":"70,-700r30,0r0,700r-30,0r0,-700xm476,0r-30,0r0,-376r-316,0r0,-30r316,0r0,-294r30,0r0,700","w":546},"I":{"d":"70,-700r30,0r0,700r-30,0r0,-700","w":170},"J":{"d":"393,-223v3,123,-81,235,-200,233v-53,0,-103,-23,-148,-68r21,-23v72,70,158,85,230,23v46,-39,67,-95,67,-174r0,-468r30,0r0,477","w":459},"K":{"d":"70,-700r30,0r0,700r-30,0r0,-700xm525,-689r-395,368r0,-41r375,-349xm178,-325r22,-20r326,335r-22,20","w":576},"L":{"d":"70,-700r30,0r0,700r-30,0r0,-700xm438,0r-308,0r0,-30r308,0r0,30","w":493},"M":{"d":"328,-177r-258,-484r0,-63r258,483r198,-370r0,63xm556,0r0,-667r30,-57r0,724r-30,0xm100,0r-30,0r0,-597r30,56r0,541","w":656},"N":{"d":"100,0r-30,0r0,-611r30,51r0,560xm487,-91r-30,-50r0,-559r30,0r0,609xm70,-729r417,698r0,60r-417,-699r0,-59","w":557},"O":{"d":"424,-708v185,2,344,168,344,358v0,189,-160,357,-344,359r0,-30v169,-3,314,-155,314,-329v0,-174,-145,-325,-314,-328r0,-30xm394,-678v-169,3,-314,154,-314,328v0,174,145,326,314,329r0,30v-185,-2,-344,-170,-344,-359v0,-190,160,-356,344,-358r0,30","w":818},"P":{"d":"374,-612v-58,-42,-139,-63,-244,-61r0,-30v114,-2,203,21,266,69v118,89,119,240,0,329v-63,47,-152,71,-266,69r0,-30v104,2,186,-19,244,-60v108,-77,108,-208,0,-286xm100,0r-30,0r0,-700v12,-1,22,-2,30,-2r0,702","w":536},"Q":{"d":"424,-708v185,2,344,168,344,358v0,93,-32,174,-95,243r95,94r-22,22r-95,-94v-66,60,-142,91,-227,94r0,-30v78,-3,147,-31,206,-85r-94,-95r22,-22r94,95v57,-64,86,-138,86,-222v0,-174,-145,-325,-314,-328r0,-30xm394,-678v-169,3,-314,154,-314,328v0,174,145,326,314,329r0,30v-185,-2,-344,-170,-344,-359v0,-190,160,-356,344,-358r0,30","w":818},"R":{"d":"486,-469v0,106,-81,179,-176,209r191,251r-24,18r-198,-260v-42,11,-93,16,-149,15r0,-30v104,2,186,-19,244,-60v108,-77,108,-208,0,-286v-58,-42,-139,-63,-244,-61r0,-30v114,-2,203,20,266,69v60,46,90,102,90,165xm100,0r-30,0r0,-700v7,0,17,-1,30,-2r0,702","w":546},"S":{"d":"248,-681v-89,4,-164,69,-163,161v1,74,64,108,115,132v87,40,199,60,244,140v38,68,13,154,-38,202v-37,36,-83,55,-138,58r0,-30v89,-4,164,-70,163,-162v-1,-74,-64,-108,-115,-132v-87,-40,-199,-60,-244,-140v-38,-68,-13,-153,38,-201v37,-35,83,-55,138,-58r0,30xm59,-106r28,-12v27,62,78,95,151,100r0,30v-88,-5,-148,-44,-179,-118xm429,-582v-27,-61,-78,-94,-151,-99r0,-30v86,5,152,49,179,117","w":516},"T":{"d":"516,-670r-466,0r0,-30r466,0r0,30xm268,-640r30,0r0,640r-30,0r0,-640","w":566},"U":{"d":"294,-20v90,-5,168,-77,168,-173r0,-507r30,0r0,507v3,113,-92,199,-198,203r0,-30xm264,10v-107,-4,-198,-90,-198,-203r0,-507r30,0r0,507v-2,96,77,168,168,173r0,30","w":558},"V":{"d":"49,-695r28,-9r256,689r-16,43xm349,-58r-16,-43r224,-603r28,9","w":634},"W":{"d":"299,-696r28,-8r59,204r60,-204r28,8r-73,248r125,425r-15,53xm50,-696r28,-8r199,681r-15,53xm723,-696r-182,621r-15,-51r169,-578xm292,-75r-15,-51r79,-270r15,52","w":773},"X":{"d":"508,-692r-432,700r-26,-16r432,-700xm50,-692r26,-16r185,300r-18,29xm482,8r-185,-300r18,-29r193,313","w":558},"Y":{"d":"294,0r-30,0r0,-345r-214,-347r26,-16r218,353r0,355xm315,-379r-18,-29r185,-300r26,16","w":558},"Z":{"d":"55,0r406,-700r34,0r-406,700r-34,0xm492,0r-368,0r18,-30r350,0r0,30xm58,-670r0,-30r368,0r-18,30r-350,0","w":550},"[":{"d":"70,-810r170,0r0,30r-140,0r0,860r140,0r0,30r-170,0r0,-920","w":240},"\\":{"d":"435,34r-28,12r-387,-829r28,-12","w":455},"]":{"d":"0,-810r170,0r0,920r-170,0r0,-30r140,0r0,-860r-140,0r0,-30","w":240},"^":{"d":"275,-555r-24,18r-88,-113r-89,113r-24,-18r113,-145","w":325},"_":{"d":"0,0r0,-30r511,0r0,30r-511,0","w":511},"`":{"d":"229,-632r-18,24r-151,-109r18,-24","w":289},"a":{"d":"85,-187v0,97,85,167,182,167v57,0,105,-15,145,-46r0,37v-40,26,-88,39,-145,39v-113,0,-212,-83,-212,-197v0,-115,98,-197,212,-195v53,0,102,15,145,45r0,36v-40,-34,-88,-51,-145,-51v-98,-2,-182,67,-182,165xm442,-341v4,-107,-60,-175,-150,-175v-64,0,-118,21,-162,64r-22,-20v51,-49,113,-74,184,-74v117,0,179,80,180,205r0,341r-30,0r0,-341","w":532},"b":{"d":"126,-27v106,2,186,-22,244,-72v108,-92,108,-250,0,-343v-58,-50,-138,-74,-244,-72r0,-30v116,-2,202,25,266,81v118,104,119,281,0,385v-64,56,-150,83,-266,81r0,-30xm66,-893r30,0r0,895v-8,0,-18,-1,-30,-2r0,-893","w":532},"c":{"d":"451,-26r2,30v-132,12,-242,-14,-313,-78v-118,-105,-118,-283,0,-388v72,-64,181,-92,313,-79r-2,30v-121,-12,-223,13,-289,71v-107,95,-107,250,0,344v66,58,168,82,289,70","w":503},"d":{"d":"162,-99v58,50,138,74,244,72r0,30v-116,2,-202,-25,-266,-81v-119,-104,-118,-281,0,-385v64,-56,150,-83,266,-81r0,30v-106,-2,-186,22,-244,72v-108,93,-108,251,0,343xm436,-893r30,0r0,893v-13,1,-23,2,-30,2r0,-895","w":532},"e":{"d":"480,-324v0,-98,-84,-197,-192,-192v-56,3,-100,26,-136,56v-44,37,-73,107,-72,190v0,65,28,122,82,171v66,59,166,83,290,69r0,30v-135,15,-238,-12,-312,-77v-60,-54,-90,-118,-90,-193v-1,-136,65,-227,162,-262v93,-33,187,-7,240,57v40,47,60,108,60,181r-401,0v0,-10,1,-20,3,-30r366,0","w":562},"f":{"d":"247,-824v-90,-1,-151,76,-151,173r0,944r-30,0r0,-799r-45,0r0,-30r45,0r0,-115v-4,-114,75,-203,181,-203v75,1,104,24,149,63r-20,22v-41,-35,-63,-54,-129,-55xm254,-506r-128,0r0,-30r128,0r0,30","w":259},"g":{"d":"267,263v100,0,169,-101,169,-203r0,-602v13,1,23,2,30,2r0,600v2,119,-81,233,-199,233v-52,0,-101,-23,-148,-68r20,-22v41,40,84,60,128,60xm406,-513v-106,-2,-186,22,-244,72v-108,92,-108,250,0,343v58,50,138,74,244,72r0,30v-116,2,-202,-25,-266,-81v-118,-104,-119,-281,0,-385v64,-56,150,-83,266,-81r0,30","w":532},"h":{"d":"66,-893r30,0r0,893r-30,0r0,-893xm453,-340v-4,-112,-81,-176,-191,-176v-49,0,-95,13,-136,39r0,-34v43,-23,89,-35,137,-35v126,0,220,76,220,204r0,342r-30,0r0,-340","w":543},"i":{"d":"70,-536r30,0r0,536r-30,0r0,-536xm60,-650r0,-50r50,0r0,50r-50,0","w":170},"j":{"d":"60,-651r0,-49r50,0r0,49r-50,0xm100,134v2,87,-46,158,-124,159v-43,0,-75,-20,-98,-61r26,-14v17,30,41,45,72,45v60,-1,94,-59,94,-129r0,-670r30,0r0,670","w":170},"k":{"d":"66,-893r30,0r0,893r-30,0r0,-893xm520,-523r-394,291r0,-38r376,-277xm186,-238r25,-19r309,244r-18,24","w":570},"l":{"d":"66,-893r30,0r0,893r-30,0r0,-893","w":162},"m":{"d":"404,-344v0,-86,-60,-172,-155,-172v-45,0,-86,13,-123,38r0,-35v37,-22,78,-33,123,-33v107,-1,185,90,185,202r0,344r-30,0r0,-344xm587,-546v110,0,185,88,185,205r0,341r-30,0r0,-341v-6,-97,-51,-175,-155,-175v-63,0,-108,30,-135,89v-3,-10,-9,-22,-16,-37v33,-55,84,-82,151,-82xm66,-536r30,0r0,536r-30,0r0,-536","w":832},"n":{"d":"454,-342v4,-103,-91,-175,-189,-174v-51,0,-98,13,-139,39r0,-34v80,-44,189,-49,266,0v53,35,92,86,92,169r0,342r-30,0r0,-342xm66,-536r30,0r0,536r-30,0r0,-536","w":544},"o":{"d":"313,-515v-125,4,-233,116,-233,247v0,131,108,244,233,248r0,29v-141,-4,-263,-131,-263,-277v0,-146,122,-273,263,-277r0,30xm343,-545v141,4,263,131,263,277v0,146,-122,273,-263,277r0,-29v125,-4,233,-117,233,-248v0,-131,-108,-243,-233,-247r0,-30","w":656},"p":{"d":"370,-441v-58,-50,-138,-74,-244,-72r0,-30v116,-2,202,25,266,81v119,104,118,281,0,385v-64,56,-150,83,-266,81r0,-30v106,2,186,-22,244,-72v108,-93,108,-251,0,-343xm96,293r-30,0r0,-833v7,0,17,-1,30,-2r0,835","w":532},"q":{"d":"406,-513v-106,-2,-186,22,-244,72v-108,92,-108,250,0,343v58,50,138,74,244,72r0,30v-116,2,-202,-25,-266,-81v-118,-104,-119,-281,0,-385v64,-56,150,-83,266,-81r0,30xm466,293r-30,0r0,-835v13,1,23,2,30,2r0,833","w":532},"r":{"d":"66,-536r30,0r0,536r-30,0r0,-536xm265,-546r0,30v-51,0,-98,13,-139,39r0,-34v43,-23,89,-35,139,-35","w":300},"s":{"d":"414,-148v-1,135,-202,189,-335,134r12,-28v114,47,293,8,293,-106v0,-53,-51,-88,-154,-105v-57,-9,-102,-26,-133,-49v-31,-23,-47,-52,-47,-86v1,-135,202,-189,335,-134r-12,28v-114,-47,-293,-8,-293,106v0,53,51,88,154,105v57,9,102,26,133,49v31,23,47,52,47,86","w":464},"t":{"d":"276,0v-128,11,-210,-61,-210,-188r0,-318r-45,0r0,-30r45,0r0,-174r30,0r0,522v-2,107,68,168,176,158xm254,-536r0,30r-128,0r0,-30r128,0","w":296},"u":{"d":"284,-20v90,-5,164,-77,164,-173r0,-343r30,0r0,343v2,112,-88,199,-194,203r0,-30xm254,10v-106,-4,-194,-91,-194,-203r0,-343r30,0r0,343v-2,96,74,168,164,173r0,30","w":538},"v":{"d":"50,-531r28,-10r201,520r-16,41xm476,-531r-181,469r-16,-41r169,-438"},"w":{"d":"302,-531r28,-10r59,153r59,-153r28,10r-71,184r126,326r-16,41xm50,-531r28,-10r201,520r-16,41xm728,-531r-181,469r-16,-41r169,-438xm295,-62r-16,-41r78,-202r16,41","w":778},"x":{"d":"258,-316r-19,24r-189,-235r24,-18xm296,-220r19,-24r189,235r-24,18xm504,-527r-430,536r-24,-18r430,-536","w":554},"y":{"d":"277,263v100,0,169,-101,169,-203r0,-596r30,0r0,596v2,119,-81,233,-199,233v-52,0,-101,-23,-148,-68r20,-22v41,40,84,60,128,60xm90,-184v-4,101,89,175,187,174v50,0,96,-17,139,-52r0,39v-139,102,-356,10,-356,-163r0,-350r30,0r0,352","w":542},"z":{"d":"46,0r403,-536r39,0r-403,536r-39,0xm50,-506r0,-30r361,0r-23,30r-338,0xm484,0r-361,0r23,-30r338,0r0,30","w":534},"{":{"d":"130,-442v0,-43,-32,-199,-30,-243v3,-73,66,-129,150,-125r0,30v-67,-3,-118,38,-120,95v-2,40,30,200,30,243v0,37,-21,68,-64,92v43,24,64,55,64,92v0,44,-32,203,-30,243v1,57,54,98,120,95r0,30v-84,3,-147,-51,-150,-125v-2,-44,30,-200,30,-243v0,-37,-52,-74,-83,-80r0,-24v31,-6,83,-43,83,-80","w":250},"|":{"d":"77,-893r30,0r0,1013r-30,0r0,-1013","w":184},"}":{"d":"120,-685v-1,-57,-54,-98,-120,-95r0,-30v84,-3,147,51,150,125v2,44,-30,200,-30,243v0,37,52,74,83,80r0,24v-31,6,-83,43,-83,80v0,43,32,199,30,243v-3,73,-66,129,-150,125r0,-30v67,3,118,-38,120,-95v2,-39,-30,-199,-30,-243v0,-37,21,-68,64,-92v-43,-24,-64,-55,-64,-92v0,-44,32,-203,30,-243","w":250},"~":{"d":"437,-336r24,18v-59,76,-137,79,-215,20v-65,-49,-122,-47,-172,15r-24,-18v59,-75,137,-80,214,-21v62,48,124,49,173,-14","w":511},"\u00a2":{"d":"50,-268v0,-139,105,-243,238,-266r0,-92r30,0r0,87v47,-6,87,-6,135,-2r-2,30v-121,-12,-223,13,-289,71v-107,95,-107,250,0,344v66,58,168,82,289,70r2,30v-48,4,-88,4,-135,-2r0,90r-30,0r0,-95v-133,-24,-238,-125,-238,-265","w":512},"\u00a3":{"d":"33,-30v42,-9,90,-85,90,-142v0,-27,-8,-75,-25,-143r32,0v26,112,40,170,-11,249v77,-26,158,43,227,43v38,0,69,-11,92,-34r20,22v-30,28,-67,42,-112,42v-57,0,-143,-51,-198,-48v-21,-4,-90,40,-110,41xm344,-670v-167,-4,-269,96,-235,265r-30,0v-17,-98,1,-179,63,-233v47,-41,114,-62,202,-62r0,30xm20,-375r200,0r0,30r-200,0r0,-30","w":493},"\u00a5":{"d":"439,-260r-320,0r0,-30r320,0r0,30xm119,-202r320,0r0,30r-320,0r0,-30xm294,-345r0,25r-30,0r0,-25r-214,-347r26,-16r203,329r203,-329r26,16xm294,0r-30,0r0,-142r30,0r0,142","w":558},"\u00a8":{"d":"70,-650r0,-50r50,0r0,50r-50,0xm205,-650r0,-50r50,0r0,50r-50,0","w":325},"\u00a9":{"d":"405,-684v-172,3,-320,156,-320,334v0,178,148,332,320,335r0,29v-187,-2,-350,-171,-350,-364v0,-193,163,-362,350,-364r0,30xm435,-714v187,2,350,171,350,364v0,193,-163,362,-350,364r0,-29v172,-3,320,-157,320,-335v0,-178,-148,-331,-320,-334r0,-30xm271,-350v0,102,95,172,213,167v18,0,32,-1,43,-2r4,30v-11,1,-26,2,-47,2v-136,5,-243,-78,-243,-197v0,-120,107,-203,244,-198v21,0,36,1,46,2r-4,30v-137,-18,-256,51,-256,166","w":840},"\u00ab":{"d":"237,163r-18,-24r-169,131r169,132r18,-24r-137,-108xm367,163r-18,-24r-169,131r169,132r18,-24r-137,-108","w":417},"\u00ae":{"d":"265,-714v95,4,175,90,175,189v0,100,-81,185,-175,190r0,-30v78,-6,145,-76,145,-160v0,-83,-67,-155,-145,-159r0,-30xm235,-335v-94,-5,-175,-90,-175,-190v0,-99,80,-185,175,-189r0,30v-79,4,-145,75,-145,159v0,84,66,155,145,160r0,30xm287,-566v0,-35,-49,-44,-94,-40r0,-30v66,-6,124,16,124,70v0,27,-14,47,-43,59r48,63r-24,18r-56,-73v-4,1,-10,1,-19,1r0,63r-30,0r0,-141r30,0r0,48v32,1,64,-13,64,-38","w":500},"\u00b4":{"d":"88,-608r-18,-24r151,-109r18,24","w":309},"\u00b8":{"d":"200,65v2,45,-53,60,-93,44r10,-28v17,8,53,5,53,-16v0,-7,-11,-10,-32,-10r-13,0r15,-58r30,8r-6,19v24,5,36,18,36,41","w":270},"\u00bb":{"d":"68,139r-18,24r137,107r-137,108r18,24r169,-132xm198,139r-18,24r137,107r-137,108r18,24r169,-132","w":417},"\u00c0":{"d":"402,481r-18,-24r-151,109r18,24xm472,219r-171,455r16,43r268,-712r-28,-10r-73,194r-302,0r11,30r279,0xm285,631r16,-42r-224,-594r-28,10","w":634},"\u00c2":{"d":"407,475r-24,-18r-66,83r-65,-83r-24,18r89,115xm472,219r-171,455r16,43r268,-712r-28,-10r-73,194r-302,0r11,30r279,0xm285,631r16,-42r-224,-594r-28,10","w":634},"\u00c6":{"d":"397,-568r30,-60r0,222r200,0r0,30r-200,0r0,346r266,0r0,30r-296,0r0,-568xm415,-670r-237,472r189,0r0,30r-204,0r-87,175r-26,-14r347,-693r296,0r0,30r-278,0","w":748},"\u00c7":{"d":"381,60v2,45,-53,60,-93,44r10,-28v17,8,53,5,53,-16v0,-7,-11,-10,-32,-10r-13,0r14,-54v-112,-19,-199,-101,-236,-194v-35,-86,-38,-191,-8,-282v50,-148,182,-246,392,-221r-2,30v-75,-7,-149,-1,-206,25v-77,35,-126,98,-155,177v-27,75,-25,162,0,238v46,136,168,224,361,201r2,30v-34,3,-81,5,-117,0r-6,19v24,5,36,18,36,41","w":518},"\u00c8":{"d":"353,481r-18,-24r-151,109r18,24xm100,0r-30,0r0,700r30,0r0,-700xm466,670r-336,0r0,30r336,0r0,-30xm400,376r-270,0r0,30r270,0r0,-30xm466,0r-336,0r0,30r336,0r0,-30","w":521},"\u00c9":{"d":"202,457r-18,24r151,109r18,-24xm100,0r-30,0r0,700r30,0r0,-700xm466,670r-336,0r0,30r336,0r0,-30xm400,376r-270,0r0,30r270,0r0,-30xm466,0r-336,0r0,30r336,0r0,-30","w":521},"\u00ca":{"d":"358,475r-24,-18r-66,83r-65,-83r-24,18r89,115xm100,0r-30,0r0,700r30,0r0,-700xm466,670r-336,0r0,30r336,0r0,-30xm400,376r-270,0r0,30r270,0r0,-30xm466,0r-336,0r0,30r336,0r0,-30","w":521},"\u00cb":{"d":"176,499r0,50r50,0r0,-50r-50,0xm311,499r0,50r50,0r0,-50r-50,0xm100,0r-30,0r0,700r30,0r0,-700xm466,670r-336,0r0,30r336,0r0,-30xm400,376r-270,0r0,30r270,0r0,-30xm466,0r-336,0r0,30r336,0r0,-30","w":521},"\u00ce":{"d":"175,475r-24,-18r-66,83r-65,-83r-24,18r89,115xm70,700r30,0r0,-700r-30,0r0,700","w":170},"\u00cf":{"d":"-7,499r0,50r50,0r0,-50r-50,0xm128,499r0,50r50,0r0,-50r-50,0xm70,700r30,0r0,-700r-30,0r0,700","w":170},"\u00d4":{"d":"499,475r-24,-18r-66,83r-65,-83r-24,18r89,115xm768,350v0,-96,-33,-179,-100,-249v-67,-69,-148,-106,-244,-110r0,30v88,4,162,38,223,102v61,63,91,139,91,227v0,88,-30,164,-91,227v-61,63,-135,97,-223,101r0,30v96,-4,177,-41,244,-110v67,-69,100,-152,100,-248xm80,350v0,-88,30,-164,91,-228v61,-63,135,-97,223,-101r0,-30v-96,4,-177,41,-244,111v-67,69,-100,152,-100,248v0,96,33,179,100,248v67,69,148,106,244,110r0,-30v-88,-4,-162,-38,-223,-101v-61,-63,-91,-139,-91,-227","w":818},"\u00d9":{"d":"364,481r-18,-24r-151,109r18,24xm492,193v0,-57,-19,-104,-58,-142v-38,-37,-85,-58,-140,-61r0,30v47,3,86,21,119,53v33,32,49,72,49,120r0,507r30,0r0,-507xm66,700r30,0r0,-507v0,-48,16,-88,49,-120v32,-32,72,-50,119,-53r0,-30v-55,3,-102,24,-141,62v-38,37,-57,84,-57,141r0,507","w":558},"\u00db":{"d":"369,475r-24,-18r-66,83r-65,-83r-24,18r89,115xm492,193v0,-57,-19,-104,-58,-142v-38,-37,-85,-58,-140,-61r0,30v47,3,86,21,119,53v33,32,49,72,49,120r0,507r30,0r0,-507xm66,700r30,0r0,-507v0,-48,16,-88,49,-120v32,-32,72,-50,119,-53r0,-30v-55,3,-102,24,-141,62v-38,37,-57,84,-57,141r0,507","w":558},"\u00dc":{"d":"187,499r0,50r50,0r0,-50r-50,0xm322,499r0,50r50,0r0,-50r-50,0xm492,193v0,-57,-19,-104,-58,-142v-38,-37,-85,-58,-140,-61r0,30v47,3,86,21,119,53v33,32,49,72,49,120r0,507r30,0r0,-507xm66,700r30,0r0,-507v0,-48,16,-88,49,-120v32,-32,72,-50,119,-53r0,-30v-55,3,-102,24,-141,62v-38,37,-57,84,-57,141r0,507","w":558},"\u00e0":{"d":"267,20v57,0,105,15,145,46r0,-37v-40,-26,-88,-39,-145,-39v-58,0,-108,18,-150,55v-41,37,-62,84,-62,142v0,58,21,105,62,141v41,36,91,54,150,54v53,0,102,-15,145,-45r0,-36v-40,34,-88,51,-145,51v-51,0,-94,-15,-129,-46v-35,-30,-53,-70,-53,-119v0,-49,18,-90,54,-121v35,-31,78,-46,128,-46xm130,452r-22,20v51,49,113,74,184,74v21,0,41,-4,61,-11v20,-7,39,-18,58,-33v18,-15,33,-36,44,-64v11,-27,17,-60,17,-97r0,-341r-30,0r0,341v0,61,-15,105,-46,133v-30,28,-65,42,-104,42v-64,0,-118,-21,-162,-64xm369,632r-18,-24r-151,109r18,24","w":532},"\u00e2":{"d":"381,626r-24,-18r-66,83r-65,-83r-24,18r89,115xm267,20v57,0,105,15,145,46r0,-37v-40,-26,-88,-39,-145,-39v-58,0,-108,18,-150,55v-41,37,-62,84,-62,142v0,58,21,105,62,141v41,36,91,54,150,54v53,0,102,-15,145,-45r0,-36v-40,34,-88,51,-145,51v-51,0,-94,-15,-129,-46v-35,-30,-53,-70,-53,-119v0,-49,18,-90,54,-121v35,-31,78,-46,128,-46xm130,452r-22,20v51,49,113,74,184,74v21,0,41,-4,61,-11v20,-7,39,-18,58,-33v18,-15,33,-36,44,-64v11,-27,17,-60,17,-97r0,-341r-30,0r0,341v0,61,-15,105,-46,133v-30,28,-65,42,-104,42v-64,0,-118,-21,-162,-64","w":532},"\u00e6":{"d":"852,-324v-1,-100,-63,-197,-172,-192v-126,7,-214,106,-208,255v2,64,29,119,80,165v63,56,162,80,282,66r0,30v-175,22,-305,-41,-362,-147r0,147r-30,0r0,-340v4,-108,-59,-176,-150,-176v-64,0,-118,21,-162,64r-22,-20v51,-49,113,-74,184,-74v90,1,162,61,174,146v32,-84,116,-144,214,-146v141,-3,204,109,204,252r-380,0v0,-7,1,-17,4,-30r344,0xm85,-187v0,97,85,167,182,167v57,0,105,-15,145,-46r0,37v-40,26,-88,39,-145,39v-113,0,-212,-83,-212,-197v0,-115,98,-197,212,-195v53,0,102,15,145,45r0,36v-40,-34,-88,-51,-145,-51v-98,-2,-182,67,-182,165","w":934},"\u00e7":{"d":"348,61v2,45,-53,60,-93,44r10,-28v17,8,53,5,53,-16v0,-7,-11,-10,-32,-10r-13,0r14,-54v-132,-25,-237,-126,-237,-265v0,-75,30,-139,90,-194v70,-66,181,-91,313,-79r-2,30v-122,-12,-223,13,-289,71v-108,95,-108,249,0,344v66,58,168,82,289,70r2,30v-48,4,-88,4,-136,-2r-5,18v24,5,36,18,36,41","w":503},"\u00e8":{"d":"114,324r366,0v0,47,-17,91,-52,132v-35,40,-81,60,-140,60v-23,0,-46,-5,-69,-14v-23,-9,-45,-23,-67,-42v-21,-18,-39,-44,-52,-77v-13,-33,-20,-70,-20,-113v0,-65,27,-122,82,-171v54,-49,130,-73,229,-73v13,0,33,1,61,4r0,-30v-29,-3,-51,-4,-64,-4v-105,0,-188,27,-248,81v-60,54,-90,118,-90,193v0,49,8,93,24,131v16,37,37,66,62,86v25,20,50,35,76,45v26,9,51,14,76,14v69,0,124,-24,164,-71v40,-47,60,-108,60,-181r-401,0v0,10,1,20,3,30xm371,632r-18,-24r-151,109r18,24","w":562},"\u00e9":{"d":"228,608r-18,24r151,109r18,-24xm114,324r366,0v0,47,-17,91,-52,132v-35,40,-81,60,-140,60v-23,0,-46,-5,-69,-14v-23,-9,-45,-23,-67,-42v-21,-18,-39,-44,-52,-77v-13,-33,-20,-70,-20,-113v0,-65,27,-122,82,-171v54,-49,130,-73,229,-73v13,0,33,1,61,4r0,-30v-29,-3,-51,-4,-64,-4v-105,0,-188,27,-248,81v-60,54,-90,118,-90,193v0,49,8,93,24,131v16,37,37,66,62,86v25,20,50,35,76,45v26,9,51,14,76,14v69,0,124,-24,164,-71v40,-47,60,-108,60,-181r-401,0v0,10,1,20,3,30","w":562},"\u00ea":{"d":"381,626r-24,-18r-66,83r-65,-83r-24,18r89,115xm114,324r366,0v0,47,-17,91,-52,132v-35,40,-81,60,-140,60v-23,0,-46,-5,-69,-14v-23,-9,-45,-23,-67,-42v-21,-18,-39,-44,-52,-77v-13,-33,-20,-70,-20,-113v0,-65,27,-122,82,-171v54,-49,130,-73,229,-73v13,0,33,1,61,4r0,-30v-29,-3,-51,-4,-64,-4v-105,0,-188,27,-248,81v-60,54,-90,118,-90,193v0,49,8,93,24,131v16,37,37,66,62,86v25,20,50,35,76,45v26,9,51,14,76,14v69,0,124,-24,164,-71v40,-47,60,-108,60,-181r-401,0v0,10,1,20,3,30","w":562},"\u00eb":{"d":"199,650r0,50r50,0r0,-50r-50,0xm334,650r0,50r50,0r0,-50r-50,0xm114,324r366,0v0,47,-17,91,-52,132v-35,40,-81,60,-140,60v-23,0,-46,-5,-69,-14v-23,-9,-45,-23,-67,-42v-21,-18,-39,-44,-52,-77v-13,-33,-20,-70,-20,-113v0,-65,27,-122,82,-171v54,-49,130,-73,229,-73v13,0,33,1,61,4r0,-30v-29,-3,-51,-4,-64,-4v-105,0,-188,27,-248,81v-60,54,-90,118,-90,193v0,49,8,93,24,131v16,37,37,66,62,86v25,20,50,35,76,45v26,9,51,14,76,14v69,0,124,-24,164,-71v40,-47,60,-108,60,-181r-401,0v0,10,1,20,3,30","w":562},"\u00ee":{"d":"175,-626r-24,18r-66,-83r-65,83r-24,-18r89,-115xm70,-536r30,0r0,536r-30,0r0,-536","w":170},"\u00ef":{"d":"-7,-650r0,-50r50,0r0,50r-50,0xm128,-650r0,-50r50,0r0,50r-50,0xm70,-536r30,0r0,536r-30,0r0,-536","w":170},"\u00f4":{"d":"418,626r-24,-18r-66,83r-65,-83r-24,18r89,115xm80,268v0,-66,23,-123,68,-171v45,-47,100,-73,165,-77r0,-29v-73,4,-136,33,-187,86v-51,53,-76,117,-76,191v0,74,26,138,77,191v51,53,113,82,186,86r0,-30v-65,-4,-121,-30,-166,-77v-45,-47,-67,-104,-67,-170xm606,268v0,-74,-26,-138,-77,-191v-51,-53,-113,-82,-186,-86r0,29v65,4,121,30,166,78v45,47,67,104,67,170v0,66,-23,123,-68,170v-45,47,-100,73,-165,77r0,30v73,-4,136,-33,187,-86v51,-53,76,-117,76,-191","w":656},"\u00f9":{"d":"478,193v0,-57,-19,-104,-56,-142v-37,-37,-83,-58,-138,-61r0,30v47,3,86,21,117,53v31,32,47,72,47,120r0,343r30,0r0,-343xm60,536r30,0r0,-343v0,-48,16,-88,47,-120v31,-32,70,-50,117,-53r0,-30v-55,3,-101,24,-138,62v-37,37,-56,84,-56,141r0,343xm340,632r-18,-24r-151,109r18,24","w":538},"\u00fb":{"d":"362,626r-24,-18r-66,83r-65,-83r-24,18r89,115xm478,193v0,-57,-19,-104,-56,-142v-37,-37,-83,-58,-138,-61r0,30v47,3,86,21,117,53v31,32,47,72,47,120r0,343r30,0r0,-343xm60,536r30,0r0,-343v0,-48,16,-88,47,-120v31,-32,70,-50,117,-53r0,-30v-55,3,-101,24,-138,62v-37,37,-56,84,-56,141r0,343","w":538},"\u00fc":{"d":"180,650r0,50r50,0r0,-50r-50,0xm315,650r0,50r50,0r0,-50r-50,0xm478,193v0,-57,-19,-104,-56,-142v-37,-37,-83,-58,-138,-61r0,30v47,3,86,21,117,53v31,32,47,72,47,120r0,343r30,0r0,-343xm60,536r30,0r0,-343v0,-48,16,-88,47,-120v31,-32,70,-50,117,-53r0,-30v-55,3,-101,24,-138,62v-37,37,-56,84,-56,141r0,343","w":538},"\u00ff":{"d":"176,650r0,50r50,0r0,-50r-50,0xm311,650r0,50r50,0r0,-50r-50,0xm446,536r30,0r0,-596v0,-63,-19,-117,-56,-164v-37,-46,-84,-69,-143,-69v-52,0,-101,23,-148,68r20,22v41,-40,84,-60,128,-60v49,0,90,20,122,61v31,40,47,87,47,142r0,596xm277,10v50,0,96,17,139,52r0,-39v-43,-29,-89,-43,-138,-43v-55,0,-105,19,-150,56v-45,37,-68,87,-68,150r0,350r30,0r0,-352v0,-52,19,-94,56,-126v37,-32,81,-48,131,-48","w":542},"\u0152":{"d":"798,-376r0,-30r270,0r0,30r-270,0xm798,0r0,-30r336,0r0,30r-336,0xm798,-670r0,-30r336,0r0,30r-336,0xm424,-708v148,6,266,102,314,215r0,-207r30,0r0,700r-30,0r0,-206v-48,114,-166,209,-314,215r0,-30v169,-3,314,-155,314,-329v0,-174,-145,-325,-314,-328r0,-30xm394,-678v-169,3,-314,154,-314,328v0,174,145,326,314,329r0,30v-185,-2,-344,-170,-344,-359v0,-190,160,-356,344,-358r0,30","w":1191},"\u0153":{"d":"978,0v-190,25,-337,-55,-386,-181v-31,100,-129,185,-249,190r0,-29v125,-4,233,-117,233,-248v0,-131,-108,-243,-233,-247r0,-30v116,5,211,86,245,179v17,-75,80,-141,142,-164v94,-35,194,-9,248,56v39,48,60,107,60,180r-431,0v-6,85,20,138,80,194v63,59,169,82,291,70r0,30xm1006,-324v0,-98,-84,-195,-192,-191v-107,4,-191,84,-204,191r396,0xm313,-515v-125,4,-233,116,-233,247v0,131,108,244,233,248r0,29v-141,-4,-263,-131,-263,-277v0,-146,122,-273,263,-277r0,30","w":1088},"\u0178":{"d":"187,499r0,50r50,0r0,-50r-50,0xm322,499r0,50r50,0r0,-50r-50,0xm294,0r-30,0r0,345r-214,347r26,16r218,-353r0,-355xm315,379r-18,29r185,300r26,-16","w":558},"\u02c6":{"d":"249,-626r-24,18r-66,-83r-65,83r-24,-18r89,-115","w":319},"\u02da":{"d":"137,-610v-44,-6,-69,-70,-37,-107v10,-12,22,-20,37,-23r0,32v-30,11,-29,56,0,67r0,31xm167,-740v43,6,70,70,37,107v-10,12,-22,20,-37,23r0,-31v29,-11,30,-56,0,-67r0,-32","w":304},"\u02dc":{"d":"273,-706r24,18v-27,52,-81,61,-127,26v-33,-26,-67,-20,-85,19r-24,-18v26,-52,82,-61,127,-25v33,25,67,18,85,-20","w":358},"\u2013":{"d":"50,-294r0,-30r617,0r0,30r-617,0","w":717},"\u2014":{"d":"50,-294r0,-30r846,0r0,30r-846,0","w":946},"\u2018":{"d":"122,-524r-60,0r0,-85v0,-47,16,-77,47,-88r10,28v-24,5,-29,46,-27,85r30,0r0,60","w":184},"\u2019":{"d":"62,-580r60,0r0,-85v0,-47,-16,-77,-47,-88r-10,28v18,6,27,26,27,60r0,25r-30,0r0,60","w":184},"\u201a":{"d":"62,-10r60,0r0,-85v0,-47,-16,-77,-47,-88r-10,28v18,6,27,26,27,60r0,25r-30,0r0,60","w":184},"\u201c":{"d":"242,524r-60,0r0,85v0,47,16,77,47,88r10,-28v-18,-6,-27,-26,-27,-60r0,-25r30,0r0,-60xm122,524r-60,0r0,85v0,47,16,77,47,88r10,-28v-18,-6,-27,-26,-27,-60r0,-25r30,0r0,-60","w":304},"\u201d":{"d":"62,-580r60,0r0,-85v0,-47,-16,-77,-47,-88r-10,28v18,6,27,26,27,60r0,25r-30,0r0,60xm182,-580r60,0r0,-85v0,-47,-16,-77,-47,-88r-10,28v18,6,27,26,27,60r0,25r-30,0r0,60","w":304},"\u201e":{"d":"182,-10r60,0r0,-85v0,-47,-16,-77,-47,-88r-10,28v18,6,27,26,27,60r0,25r-30,0r0,60xm62,-10r60,0r0,-85v0,-47,-16,-77,-47,-88r-10,28v18,6,27,26,27,60r0,25r-30,0r0,60","w":304},"\u2026":{"d":"72,0r0,60r60,0r0,-60r-60,0xm276,0r0,60r60,0r0,-60r-60,0xm480,0r0,60r60,0r0,-60r-60,0","w":612},"\u2039":{"d":"237,-163r-18,24r-169,-131r169,-132r18,24r-137,108","w":287},"\u203a":{"d":"68,-139r-18,-24r137,-107r-137,-108r18,-24r169,132","w":287},"\u20ac":{"d":"93,-437v32,-148,150,-270,331,-267v27,0,51,1,73,3r-2,30v-22,-2,-46,-3,-71,-3v-164,-2,-268,105,-300,237r-31,0xm125,-259v32,129,137,234,298,232v26,0,50,-1,72,-3r2,30v-120,12,-222,-8,-292,-71v-56,-50,-94,-112,-112,-188r32,0xm390,-407r0,30r-340,0r0,-30r340,0xm390,-319r0,30r-340,0r0,-30r340,0","w":547},"\u2122":{"d":"423,-470r-102,-190r0,-64r102,190r42,-78r0,64xm289,-670r-229,0r0,-30r229,0r0,30xm495,-470r0,-198r30,-56r0,254r-30,0xm188,-470r-30,0r0,-170r30,0r0,170xm351,-470r-30,0r0,-127r30,56r0,71","w":617},"\u00a0":{"w":325}}});
